Language model created by QuickLM on Mon Feb  2 00:48:45 EST 2015
Copyright (c) 1996-2010 Carnegie Mellon University and Alexander I. Rudnicky

The model is in standard ARPA format, designed by Doug Paul while he was at MITRE.

The code that was used to produce this language model is available in Open Source.
Please visit http://www.speech.cs.cmu.edu/tools/ for more information

The (fixed) discount mass is 0.5. The backoffs are computed using the ratio method.
This model based on a corpus of 6798 sentences and 6800 words

\data\
ngram 1=6800
ngram 2=13596
ngram 3=6798

\1-grams:
-0.7782 </s> -0.3010
-0.7782 <s> -0.2218
-4.6105 ABANDONMENT -0.2218
-4.6105 ABATEMENT -0.2218
-4.6105 ABBREVIATION -0.2218
-4.6105 ABDICATION -0.2218
-4.6105 ABDOMINAL -0.2218
-4.6105 ABDUCTION -0.2218
-4.6105 ABHORRENCE -0.2218
-4.6105 ABKHAZIAN -0.2218
-4.6105 ABNORMALITY -0.2218
-4.6105 ABOLITION -0.2218
-4.6105 ABOLITIONISM -0.2218
-4.6105 ABOLITIONIST -0.2218
-4.6105 ABOMINATION -0.2218
-4.6105 ABORIGINAL -0.2218
-4.6105 ABORIGINE -0.2218
-4.6105 ABORTIFACIENT -0.2218
-4.6105 ABORTIONIST -0.2218
-4.6105 ABRACADABRA -0.2218
-4.6105 ABRIDGEMENT -0.2218
-4.6105 ABROGATION -0.2218
-4.6105 ABRUPTNESS -0.2218
-4.6105 ABSENTEEISM -0.2218
-4.6105 ABSOLUTENESS -0.2218
-4.6105 ABSOLUTION -0.2218
-4.6105 ABSOLUTISM -0.2218
-4.6105 ABSOLUTIST -0.2218
-4.6105 ABSORBENCY -0.2218
-4.6105 ABSORBENT -0.2218
-4.6105 ABSORPTION -0.2218
-4.6105 ABSTENTION -0.2218
-4.6105 ABSTINENCE -0.2218
-4.6105 ABSTINENT -0.2218
-4.6105 ABSTRACT -0.2218
-4.6105 ABSTRACTION -0.2218
-4.6105 ABSURDITY -0.2218
-4.6105 ABUNDANCE -0.2218
-4.6105 ABYSSINIAN -0.2218
-4.6105 ACADEMIA -0.2218
-4.6105 ACADEMIC -0.2218
-4.6105 ACADEMICIAN -0.2218
-4.6105 ACAPULCO -0.2218
-4.6105 ACCELERATION -0.2218
-4.6105 ACCELERATOR -0.2218
-4.6105 ACCELEROMETER -0.2218
-4.6105 ACCENTING -0.2218
-4.6105 ACCEPTABILITY -0.2218
-4.6105 ACCEPTANCE -0.2218
-4.6105 ACCESSIBILITY -0.2218
-4.6105 ACCIDENT -0.2218
-4.6105 ACCIDENTAL -0.2218
-4.6105 ACCLAMATION -0.2218
-4.6105 ACCLIMATION -0.2218
-4.6105 ACCOMMODATION -0.2218
-4.6105 ACCOMPANIMENT -0.2218
-4.6105 ACCOMPANIST -0.2218
-4.6105 ACCOMPLICE -0.2218
-4.6105 ACCOMPLISHMENT -0.2218
-4.6105 ACCORDANCE -0.2218
-4.6105 ACCORDION -0.2218
-4.6105 ACCOUNTABILITY -0.2218
-4.6105 ACCOUNTANCY -0.2218
-4.6105 ACCOUNTANT -0.2218
-4.6105 ACCOUTERMENT -0.2218
-4.6105 ACCOUTREMENT -0.2218
-4.6105 ACCREDITATION -0.2218
-4.6105 ACCUMULATION -0.2218
-4.6105 ACCUMULATOR -0.2218
-4.6105 ACCUSATION -0.2218
-4.6105 ACCUSATIVE -0.2218
-4.6105 ACETAMINOPHEN -0.2218
-4.6105 ACETYLCHOLINE -0.2218
-4.6105 ACETYLENE -0.2218
-4.6105 ACHIEVEMENT -0.2218
-4.6105 ACIDIFICATION -0.2218
-4.6105 ACIDOSIS -0.2218
-4.6105 ACKNOWLEDGEMENT -0.2218
-4.6105 ACKNOWLEDGMENT -0.2218
-4.6105 ACOUSTICS -0.2218
-4.6105 ACQUAINTANCE -0.2218
-4.6105 ACQUAINTANCESHIP -0.2218
-4.6105 ACQUIESCENCE -0.2218
-4.6105 ACQUISITION -0.2218
-4.6105 ACRIMONY -0.2218
-4.6105 ACROBATICS -0.2218
-4.6105 ACROPOLIS -0.2218
-4.6105 ACTINIDIA -0.2218
-4.6105 ACTINOMYCOSIS -0.2218
-4.6105 ACTIVATING -0.2218
-4.6105 ACTIVATION -0.2218
-4.6105 ACTIVATOR -0.2218
-4.6105 ACTIVISM -0.2218
-4.6105 ACTIVIST -0.2218
-4.6105 ACTIVITY -0.2218
-4.6105 ACTUALITY -0.2218
-4.6105 ACTUATOR -0.2218
-4.6105 ACUPUNCTURE -0.2218
-4.6105 ACUTENESS -0.2218
-4.6105 ACYCLOVIR -0.2218
-4.6105 ADAPTABILITY -0.2218
-4.6105 ADAPTATION -0.2218
-4.6105 ADENOSINE -0.2218
-4.6105 ADENOVIRUS -0.2218
-4.6105 ADEQUACY -0.2218
-4.6105 ADHERENCE -0.2218
-4.6105 ADHERENT -0.2218
-4.6105 ADJOURNMENT -0.2218
-4.6105 ADJUDICATION -0.2218
-4.6105 ADJUSTMENT -0.2218
-4.6105 ADMINISTRATION -0.2218
-4.6105 ADMINISTRATOR -0.2218
-4.6105 ADMIRALTY -0.2218
-4.6105 ADMIRATION -0.2218
-4.6105 ADMISSIBILITY -0.2218
-4.6105 ADMITTANCE -0.2218
-4.6105 ADMONISHMENT -0.2218
-4.6105 ADMONITION -0.2218
-4.6105 ADOLESCENCE -0.2218
-4.6105 ADOLESCENT -0.2218
-4.6105 ADORNMENT -0.2218
-4.6105 ADRENALIN -0.2218
-4.6105 ADRENALINE -0.2218
-4.6105 ADRIATIC -0.2218
-4.6105 ADULATION -0.2218
-4.6105 ADULTERATION -0.2218
-4.6105 ADULTHOOD -0.2218
-4.6105 ADVANCEMENT -0.2218
-4.6105 ADVANTAGE -0.2218
-4.6105 ADVECTION -0.2218
-4.6105 ADVENTIST -0.2218
-4.6105 ADVENTURER -0.2218
-4.6105 ADVENTURISM -0.2218
-4.6105 ADVERBIAL -0.2218
-4.6105 ADVERSARY -0.2218
-4.6105 ADVERSITY -0.2218
-4.6105 ADVERTISEMENT -0.2218
-4.6105 ADVERTISER -0.2218
-4.6105 ADVERTISING -0.2218
-4.6105 ADVERTORIAL -0.2218
-4.6105 ADVISABILITY -0.2218
-4.6105 ADVISEMENT -0.2218
-4.6105 ADVOCACY -0.2218
-4.6105 AEROBATICS -0.2218
-4.6105 AERODYNAMICS -0.2218
-4.6105 AERONAUTICS -0.2218
-4.6105 AESTHETICS -0.2218
-4.6105 AFFECTATION -0.2218
-4.6105 AFFIDAVIT -0.2218
-4.6105 AFFILIATION -0.2218
-4.6105 AFFIRMATION -0.2218
-4.6105 AFFIRMATIVE -0.2218
-4.6105 AFFLICTION -0.2218
-4.6105 AFFRICATION -0.2218
-4.6105 AFGHANISTAN -0.2218
-4.6105 AFICIONADO -0.2218
-4.6105 AFLATOXIN -0.2218
-4.6105 AFRICAN-AMERICAN -0.2218
-4.6105 AFRIKAANS -0.2218
-4.6105 AFRIKANER -0.2218
-4.6105 AFTERBURNER -0.2218
-4.6105 AFTEREFFECT -0.2218
-4.6105 AFTERIMAGE -0.2218
-4.6105 AFTERTASTE -0.2218
-4.6105 AGAMEMNON -0.2218
-4.6105 AGERATUM -0.2218
-4.6105 AGGLOMERATE -0.2218
-4.6105 AGGLOMERATION -0.2218
-4.6105 AGGRANDIZEMENT -0.2218
-4.6105 AGGRAVATION -0.2218
-4.6105 AGGREGATION -0.2218
-4.6105 AGGRESSIVENESS -0.2218
-4.6105 AGINCOURT -0.2218
-4.6105 AGITATION -0.2218
-4.6105 AGITPROP -0.2218
-4.6105 AGNOSTIC -0.2218
-4.6105 AGORAPHOBIA -0.2218
-4.6105 AGREEMENT -0.2218
-4.6105 AGRIBUSINESS -0.2218
-4.6105 AGRICOLA -0.2218
-4.6105 AGRICULTURALIST -0.2218
-4.6105 AGRICULTURE -0.2218
-4.6105 AGRONOMIST -0.2218
-4.6105 AIRWORTHINESS -0.2218
-4.6105 AIX-LA-CHAPELLE -0.2218
-4.6105 ALABAMAN -0.2218
-4.6105 ALABASTER -0.2218
-4.6105 ALACRITY -0.2218
-4.6105 ALARMIST -0.2218
-4.6105 ALBANIAN -0.2218
-4.6105 ALBATROSS -0.2218
-4.6105 ALBUMIN -0.2218
-4.6105 ALBUQUERQUE -0.2218
-4.6105 ALBUTEROL -0.2218
-4.6105 ALCHEMIST -0.2218
-4.6105 ALCOHOLIC -0.2218
-4.6105 ALCOHOLISM -0.2218
-4.6105 ALDEBARAN -0.2218
-4.6105 ALEXANDER -0.2218
-4.6105 ALEXANDERS -0.2218
-4.6105 ALEXANDRIA -0.2218
-4.6105 ALEXANDRINE -0.2218
-4.6105 ALGERIAN -0.2218
-4.6105 ALGONQUIAN -0.2218
-4.6105 ALGONQUIN -0.2218
-4.6105 ALGORITHM -0.2218
-4.6105 ALHAMBRA -0.2218
-4.6105 ALIENATION -0.2218
-4.6105 ALIGNMENT -0.2218
-4.6105 ALKAHEST -0.2218
-4.6105 ALKALINITY -0.2218
-4.6105 ALLEGATION -0.2218
-4.6105 ALLEGHENIES -0.2218
-4.6105 ALLEVIATION -0.2218
-4.6105 ALLITERATION -0.2218
-4.6105 ALLOCATION -0.2218
-4.6105 ALLOTMENT -0.2218
-4.6105 ALPHABETIZATION -0.2218
-4.6105 ALTERATION -0.2218
-4.6105 ALTERCATION -0.2218
-4.6105 ALTERNATION -0.2218
-4.6105 ALTERNATIVE -0.2218
-4.6105 ALTERNATOR -0.2218
-4.6105 ALTIMETER -0.2218
-4.6105 ALTOGETHER -0.2218
-4.6105 ALTRUISM -0.2218
-4.6105 ALUMINIUM -0.2218
-4.6105 ALUMINUM -0.2218
-4.6105 ALZHEIMER'S -0.2218
-4.6105 AMALGAMATION -0.2218
-4.6105 AMATEURISM -0.2218
-4.6105 AMAZEMENT -0.2218
-4.6105 AMBASSADOR -0.2218
-4.6105 AMBASSADORSHIP -0.2218
-4.6105 AMBASSADRESS -0.2218
-4.6105 AMBERGRIS -0.2218
-4.6105 AMBIGUITY -0.2218
-4.6105 AMBIVALENCE -0.2218
-4.6105 AMBULANCE -0.2218
-4.6105 AMBULATORY -0.2218
-4.6105 AMELIORATION -0.2218
-4.6105 AMENDMENT -0.2218
-4.6105 AMENITIES -0.2218
-4.6105 AMERICAN -0.2218
-4.6105 AMERICANA -0.2218
-4.6105 AMERICANISM -0.2218
-4.6105 AMERICANIZATION -0.2218
-4.6105 AMERINDIAN -0.2218
-4.6105 AMIABILITY -0.2218
-4.6105 AMMUNITION -0.2218
-4.6105 AMNESIAC -0.2218
-4.6105 AMNIOCENTESIS -0.2218
-4.6105 AMORTIZATION -0.2218
-4.6105 AMOXICILLIN -0.2218
-4.6105 AMPERSAND -0.2218
-4.6105 AMPHETAMINE -0.2218
-4.6105 AMPHIBIAN -0.2218
-4.6105 AMPHITHEATER -0.2218
-4.6105 AMPHITHEATRE -0.2218
-4.6105 AMPLIFICATION -0.2218
-4.6105 AMPLIFIER -0.2218
-4.6105 AMPLITUDE -0.2218
-4.6105 AMPUTATION -0.2218
-4.6105 AMSTERDAM -0.2218
-4.6105 AMUNDSEN -0.2218
-4.6105 AMUSEMENT -0.2218
-4.6105 AMYGDALA -0.2218
-4.6105 ANABAPTIST -0.2218
-4.6105 ANACHRONISM -0.2218
-4.6105 ANACONDA -0.2218
-4.6105 ANAESTHESIA -0.2218
-4.6105 ANALGESIC -0.2218
-4.6105 ANALYSIS -0.2218
-4.6105 ANALYTICITY -0.2218
-4.6105 ANAPHYLAXIS -0.2218
-4.6105 ANAPLASIA -0.2218
-4.6105 ANATOLIA -0.2218
-4.6105 ANATOLIAN -0.2218
-4.6105 ANATOMICAL -0.2218
-4.6105 ANATOMIST -0.2218
-4.6105 ANCESTRY -0.2218
-4.6105 ANDALUSIA -0.2218
-4.6105 ANDROGYNY -0.2218
-4.6105 ANDROMEDA -0.2218
-4.6105 ANEMOMETER -0.2218
-4.6105 ANENCEPHALY -0.2218
-4.6105 ANESTHESIA -0.2218
-4.6105 ANESTHESIOLOGIST -0.2218
-4.6105 ANESTHESIOLOGY -0.2218
-4.6105 ANESTHETIC -0.2218
-4.6105 ANESTHETIST -0.2218
-4.6105 ANEURISM -0.2218
-4.6105 ANGELFISH -0.2218
-4.6105 ANGELICA -0.2218
-4.6105 ANGIOGENESIS -0.2218
-4.6105 ANGIOGRAM -0.2218
-4.6105 ANGIOPLASTY -0.2218
-4.6105 ANGIOTENSIN -0.2218
-4.6105 ANGLICAN -0.2218
-4.6105 ANGLO-CATHOLICISM -0.2218
-4.6105 ANGLOPHILE -0.2218
-4.6105 ANHYDRIDE -0.2218
-4.6105 ANIMATION -0.2218
-4.6105 ANIMISM -0.2218
-4.6105 ANIMOSITY -0.2218
-4.6105 ANKLEBONE -0.2218
-4.6105 ANNAPOLIS -0.2218
-4.6105 ANNEXATION -0.2218
-4.6105 ANNIHILATION -0.2218
-4.6105 ANNIVERSARY -0.2218
-4.6105 ANNOTATING -0.2218
-4.6105 ANNOTATION -0.2218
-4.6105 ANNOUNCEMENT -0.2218
-4.6105 ANNULMENT -0.2218
-4.6105 ANONYMITY -0.2218
-4.6105 ANOREXIA -0.2218
-4.6105 ANOREXIC -0.2218
-4.6105 ANTAGONISM -0.2218
-4.6105 ANTAGONIST -0.2218
-4.6105 ANTARCTIC -0.2218
-4.6105 ANTARCTICA -0.2218
-4.6105 ANTECEDENT -0.2218
-4.6105 ANTHOLOGY -0.2218
-4.6105 ANTHRACITE -0.2218
-4.6105 ANTHROPOLOGIST -0.2218
-4.6105 ANTHROPOLOGY -0.2218
-4.6105 ANTHROPOMORPHISM -0.2218
-4.6105 ANTI-CATHOLICISM -0.2218
-4.6105 ANTIAIRCRAFT -0.2218
-4.6105 ANTIBACTERIAL -0.2218
-4.6105 ANTIBIOTIC -0.2218
-4.6105 ANTIBODY -0.2218
-4.6105 ANTICIPATION -0.2218
-4.6105 ANTICYCLONE -0.2218
-4.6105 ANTIDEPRESSANT -0.2218
-4.6105 ANTIFREEZE -0.2218
-4.6105 ANTIFUNGAL -0.2218
-4.6105 ANTIHISTAMINE -0.2218
-4.6105 ANTIOXIDANT -0.2218
-4.6105 ANTIPATHY -0.2218
-4.6105 ANTIPODAL -0.2218
-4.6105 ANTIQUITY -0.2218
-4.6105 ANTISEPTIC -0.2218
-4.6105 ANTITHESIS -0.2218
-4.6105 ANTITOXIN -0.2218
-4.6105 ANTIVIRAL -0.2218
-4.6105 ANTONIUS -0.2218
-4.6105 APALACHICOLA -0.2218
-4.6105 APARTMENT -0.2218
-4.6105 APERITIF -0.2218
-4.6105 APHRODISIAC -0.2218
-4.6105 APHRODITE -0.2218
-4.6105 APOCALYPSE -0.2218
-4.6105 APOLOGIST -0.2218
-4.6105 APOPLEXY -0.2218
-4.6105 APOPTOSIS -0.2218
-4.6105 APOSTROPHE -0.2218
-4.6105 APOTHECARY -0.2218
-4.6105 APOTHEOSIS -0.2218
-4.6105 APPALACHIA -0.2218
-4.6105 APPALACHIAN -0.2218
-4.6105 APPALACHIANS -0.2218
-4.6105 APPEASEMENT -0.2218
-4.6105 APPELLATION -0.2218
-4.6105 APPENDECTOMY -0.2218
-4.6105 APPENDICITIS -0.2218
-4.6105 APPENDIX -0.2218
-4.6105 APPENZELLER -0.2218
-4.6105 APPLICABILITY -0.2218
-4.6105 APPLICANT -0.2218
-4.6105 APPLICATION -0.2218
-4.6105 APPLICATOR -0.2218
-4.6105 APPOINTMENT -0.2218
-4.6105 APPORTIONING -0.2218
-4.6105 APPORTIONMENT -0.2218
-4.6105 APPRECIATION -0.2218
-4.6105 APPREHENSION -0.2218
-4.6105 APPRENTICE -0.2218
-4.6105 APPRENTICESHIP -0.2218
-4.6105 APPROBATION -0.2218
-4.6105 APPROPRIATENESS -0.2218
-4.6105 APPROPRIATION -0.2218
-4.6105 APPROPRIATOR -0.2218
-4.6105 APPROXIMATION -0.2218
-4.6105 AQUACULTURE -0.2218
-4.6105 AQUAMARINE -0.2218
-4.6105 AQUARIUM -0.2218
-4.6105 AQUARIUS -0.2218
-4.6105 AQUEDUCT -0.2218
-4.6105 ARBITRAGE -0.2218
-4.6105 ARBITRAGER -0.2218
-4.6105 ARBITRAGEUR -0.2218
-4.6105 ARBITRARINESS -0.2218
-4.6105 ARBITRATION -0.2218
-4.6105 ARBITRATOR -0.2218
-4.6105 ARBORETUM -0.2218
-4.6105 ARCADIAN -0.2218
-4.6105 ARCHAEOLOGIST -0.2218
-4.6105 ARCHAEOLOGY -0.2218
-4.6105 ARCHANGEL -0.2218
-4.6105 ARCHBISHOP -0.2218
-4.6105 ARCHDIOCESE -0.2218
-4.6105 ARCHEOLOGY -0.2218
-4.6105 ARCHIMEDES -0.2218
-4.6105 ARCHIPELAGO -0.2218
-4.6105 ARCHITECT -0.2218
-4.6105 ARCHITECTURE -0.2218
-4.6105 ARCHITRAVE -0.2218
-4.6105 ARCHIVIST -0.2218
-4.6105 ARCTURUS -0.2218
-4.6105 ARGENTINA -0.2218
-4.6105 ARGENTINE -0.2218
-4.6105 ARGENTINIAN -0.2218
-4.6105 ARGUMENT -0.2218
-4.6105 ARGUMENTATION -0.2218
-4.6105 ARIANISM -0.2218
-4.6105 ARISTOCRACY -0.2218
-4.6105 ARISTOCRAT -0.2218
-4.6105 ARISTOPHANES -0.2218
-4.6105 ARISTOTELIAN -0.2218
-4.6105 ARISTOTLE -0.2218
-4.6105 ARITHMETIC -0.2218
-4.6105 ARKANSAN -0.2218
-4.6105 ARLINGTON -0.2218
-4.6105 ARMADILLO -0.2218
-4.6105 ARMAGEDDON -0.2218
-4.6105 ARMAMENT -0.2218
-4.6105 ARMENIAN -0.2218
-4.6105 ARMISTICE -0.2218
-4.6105 ARMSTRONG -0.2218
-4.6105 AROMATHERAPY -0.2218
-4.6105 ARRANGEMENT -0.2218
-4.6105 ARSONIST -0.2218
-4.6105 ARTERIOSCLEROSIS -0.2218
-4.6105 ARTHRITIC -0.2218
-4.6105 ARTHRITIS -0.2218
-4.6105 ARTHROPOD -0.2218
-4.6105 ARTICULATION -0.2218
-4.6105 ARTIFACT -0.2218
-4.6105 ARTIODACTYL -0.2218
-4.6105 ARTISTRY -0.2218
-4.6105 ASBESTOS -0.2218
-4.6105 ASBESTOSIS -0.2218
-4.6105 ASCENDANCE -0.2218
-4.6105 ASCENDANCY -0.2218
-4.6105 ASCENDANT -0.2218
-4.6105 ASCENDENCY -0.2218
-4.6105 ASHKENAZI -0.2218
-4.6105 ASPARAGUS -0.2218
-4.6105 ASPERITY -0.2218
-4.6105 ASPINWALL -0.2218
-4.6105 ASPIRATION -0.2218
-4.6105 ASSASSINATION -0.2218
-4.6105 ASSEMBLAGE -0.2218
-4.6105 ASSEMBLING -0.2218
-4.6105 ASSEMBLYMAN -0.2218
-4.6105 ASSEMBLYWOMAN -0.2218
-4.6105 ASSERTIVENESS -0.2218
-4.6105 ASSESSMENT -0.2218
-4.6105 ASSIGNMENT -0.2218
-4.6105 ASSIMILATION -0.2218
-4.6105 ASSISTANCE -0.2218
-4.6105 ASSISTANT -0.2218
-4.6105 ASSOCIATION -0.2218
-4.6105 ASSORTMENT -0.2218
-4.6105 ASSUMPTION -0.2218
-4.6105 ASTIGMATISM -0.2218
-4.6105 ASTONISHMENT -0.2218
-4.6105 ASTRAKHAN -0.2218
-4.6105 ASTRINGENT -0.2218
-4.6105 ASTRODOME -0.2218
-4.6105 ASTROLOGER -0.2218
-4.6105 ASTROLOGY -0.2218
-4.6105 ASTRONAUT -0.2218
-4.6105 ASTRONAUTICS -0.2218
-4.6105 ASTRONOMER -0.2218
-4.6105 ASTRONOMY -0.2218
-4.6105 ASTROPHYSICIST -0.2218
-4.6105 ASTROPHYSICS -0.2218
-4.6105 ASTUTENESS -0.2218
-4.6105 ASYMMETRY -0.2218
-4.6105 ATAVISM -0.2218
-4.6105 ATHEROSCLEROSIS -0.2218
-4.6105 ATHLETICISM -0.2218
-4.6105 ATHLETICS -0.2218
-4.6105 ATLANTIC -0.2218
-4.6105 ATLANTIS -0.2218
-4.6105 ATMOSPHERE -0.2218
-4.6105 ATMOSPHERICS -0.2218
-4.6105 ATONEMENT -0.2218
-4.6105 ATROCITY -0.2218
-4.6105 ATTACHMENT -0.2218
-4.6105 ATTAINMENT -0.2218
-4.6105 ATTENDANCE -0.2218
-4.6105 ATTENDANT -0.2218
-4.6105 ATTENTIVENESS -0.2218
-4.6105 ATTRACTION -0.2218
-4.6105 ATTRACTIVENESS -0.2218
-4.6105 ATTRIBUTE -0.2218
-4.6105 ATTRIBUTION -0.2218
-4.6105 AUDIOVISUAL -0.2218
-4.6105 AUDITORIUM -0.2218
-4.6105 AUGMENTATION -0.2218
-4.6105 AUGUSTINIAN -0.2218
-4.6105 AUSTERITY -0.2218
-4.6105 AUSTRALASIA -0.2218
-4.6105 AUSTRALIA -0.2218
-4.6105 AUSTRALIAN -0.2218
-4.6105 AUSTRALOPITHECINE -0.2218
-4.6105 AUSTRALOPITHECUS -0.2218
-4.6105 AUTHENTICATION -0.2218
-4.6105 AUTHENTICITY -0.2218
-4.6105 AUTHORITARIAN -0.2218
-4.6105 AUTHORITARIANISM -0.2218
-4.6105 AUTHORITIES -0.2218
-4.6105 AUTHORIZATION -0.2218
-4.6105 AUTOBIOGRAPHER -0.2218
-4.6105 AUTOBIOGRAPHY -0.2218
-4.6105 AUTOCRACY -0.2218
-4.6105 AUTOMATIC -0.2218
-4.6105 AUTOMATION -0.2218
-4.6105 AUTOMATON -0.2218
-4.6105 AUTOMOBILE -0.2218
-4.6105 AUTOPILOT -0.2218
-4.6105 AUTORADIOGRAPH -0.2218
-4.6105 AUXILIARY -0.2218
-4.6105 AVAILABILITY -0.2218
-4.6105 AVANT-GARDE -0.2218
-4.6105 AVIONICS -0.2218
-4.6105 AVOCATION -0.2218
-4.6105 AWAKENING -0.2218
-4.6105 AWKWARDNESS -0.2218
-4.6105 AZERBAIJAN -0.2218
-4.6105 AZERBAIJANI -0.2218
-4.6105 BABINSKI -0.2218
-4.6105 BABY-SITTER -0.2218
-4.6105 BABYLONIAN -0.2218
-4.6105 BABYSITTER -0.2218
-4.6105 BABYSITTING -0.2218
-4.6105 BACCALAUREATE -0.2218
-4.6105 BACCHANALIA -0.2218
-4.6105 BACKGAMMON -0.2218
-4.6105 BACKGROUND -0.2218
-4.6105 BACKPACKING -0.2218
-4.6105 BACKSLIDING -0.2218
-4.6105 BACKSTAIRS -0.2218
-4.6105 BACKSTROKE -0.2218
-4.6105 BACKWARDNESS -0.2218
-4.6105 BACKWOODSMAN -0.2218
-4.6105 BACTERIA -0.2218
-4.6105 BACTERIOLOGY -0.2218
-4.6105 BACTERIUM -0.2218
-4.6105 BADLANDS -0.2218
-4.6105 BADMINTON -0.2218
-4.6105 BAHAMIAN -0.2218
-4.6105 BAKERSFIELD -0.2218
-4.6105 BALANCHINE -0.2218
-4.6105 BALANCING -0.2218
-4.6105 BALBRIGGAN -0.2218
-4.6105 BALDERDASH -0.2218
-4.6105 BALLISTICS -0.2218
-4.6105 BALLOONIST -0.2218
-4.6105 BALMORAL -0.2218
-4.6105 BALTIMORE -0.2218
-4.6105 BANALITY -0.2218
-4.6105 BANDICOOT -0.2218
-4.6105 BANDITRY -0.2218
-4.6105 BANDLEADER -0.2218
-4.6105 BANDOLIER -0.2218
-4.6105 BANDSTAND -0.2218
-4.6105 BANDWAGON -0.2218
-4.6105 BANDWIDTH -0.2218
-4.6105 BANGALORE -0.2218
-4.6105 BANGLADESH -0.2218
-4.6105 BANGLADESHI -0.2218
-4.6105 BANISHMENT -0.2218
-4.6105 BANKRUPT -0.2218
-4.6105 BANKRUPTCY -0.2218
-4.6105 BAPTISM -0.2218
-4.6105 BAPTISTERY -0.2218
-4.6105 BAPTISTS -0.2218
-4.6105 BARBADOS -0.2218
-4.6105 BARBARIAN -0.2218
-4.6105 BARBARISM -0.2218
-4.6105 BARBARITY -0.2218
-4.6105 BARBECUE -0.2218
-4.6105 BARBEQUE -0.2218
-4.6105 BARBERSHOP -0.2218
-4.6105 BARBITURATE -0.2218
-4.6105 BARCELONA -0.2218
-4.6105 BARGAINING -0.2218
-4.6105 BARNACLE -0.2218
-4.6105 BARNYARD -0.2218
-4.6105 BARRACUDA -0.2218
-4.6105 BARTENDER -0.2218
-4.6105 BARTLESVILLE -0.2218
-4.6105 BARYSHNIKOV -0.2218
-4.6105 BASILICA -0.2218
-4.6105 BASKETBALL -0.2218
-4.6105 BASKETMAKER -0.2218
-4.6105 BASKETRY -0.2218
-4.6105 BASOPHILIA -0.2218
-4.6105 BATTALION -0.2218
-4.6105 BATTLEFIELD -0.2218
-4.6105 BATTLEFRONT -0.2218
-4.6105 BATTLEGROUND -0.2218
-4.6105 BATTLEMENT -0.2218
-4.6105 BATTLESHIP -0.2218
-4.6105 BAVARIAN -0.2218
-4.6105 BEACHFRONT -0.2218
-4.6105 BEAUTICIAN -0.2218
-4.6105 BEDCHAMBER -0.2218
-4.6105 BEDSPREAD -0.2218
-4.6105 BEHAVIORIST -0.2218
-4.6105 BEHOLDING -0.2218
-4.6105 BELEAGUERING -0.2218
-4.6105 BELIEVABILITY -0.2218
-4.6105 BELITTLING -0.2218
-4.6105 BELLIGERENCE -0.2218
-4.6105 BELLIGERENT -0.2218
-4.6105 BELLINGHAM -0.2218
-4.6105 BELONGINGS -0.2218
-4.6105 BELVEDERE -0.2218
-4.6105 BEMUSEMENT -0.2218
-4.6105 BENCHMARK -0.2218
-4.6105 BENEDICT -0.2218
-4.6105 BENEDICTINE -0.2218
-4.6105 BENEDICTION -0.2218
-4.6105 BENEFACTOR -0.2218
-4.6105 BENEFICENCE -0.2218
-4.6105 BENEFICIARY -0.2218
-4.6105 BENELUX -0.2218
-4.6105 BENEVOLENCE -0.2218
-4.6105 BENJAMIN -0.2218
-4.6105 BENNINGTON -0.2218
-4.6105 BENTONITE -0.2218
-4.6105 BENZODIAZEPINE -0.2218
-4.6105 BEREAVEMENT -0.2218
-4.6105 BERMUDAS -0.2218
-4.6105 BERTOLUCCI -0.2218
-4.6105 BESTIALITY -0.2218
-4.6105 BESTSELLER -0.2218
-4.6105 BETELGEUSE -0.2218
-4.6105 BETHLEHEM -0.2218
-4.6105 BETTERMENT -0.2218
-4.6105 BEWILDERMENT -0.2218
-4.6105 BIBLIOGRAPHY -0.2218
-4.6105 BICARBONATE -0.2218
-4.6105 BICENTENARY -0.2218
-4.6105 BICENTENNIAL -0.2218
-4.6105 BICUSPID -0.2218
-4.6105 BICYCLING -0.2218
-4.6105 BICYCLIST -0.2218
-4.6105 BIFOCALS -0.2218
-4.6105 BIFURCATION -0.2218
-4.6105 BILINGUAL -0.2218
-4.6105 BILINGUALISM -0.2218
-4.6105 BILLIONAIRE -0.2218
-4.6105 BIMONTHLY -0.2218
-4.6105 BINGHAMTON -0.2218
-4.6105 BINOCULARS -0.2218
-4.6105 BINOMIAL -0.2218
-4.6105 BIOCHEMIST -0.2218
-4.6105 BIOCHEMISTRY -0.2218
-4.6105 BIODIVERSITY -0.2218
-4.6105 BIOENGINEERING -0.2218
-4.6105 BIOETHICS -0.2218
-4.6105 BIOFEEDBACK -0.2218
-4.6105 BIOGRAPHER -0.2218
-4.6105 BIOGRAPHY -0.2218
-4.6105 BIOHAZARD -0.2218
-4.6105 BIOLOGIST -0.2218
-4.6105 BIOPHYSICS -0.2218
-4.6105 BIOSAFETY -0.2218
-4.6105 BIOSCIENCE -0.2218
-4.6105 BIOTECHNOLOGY -0.2218
-4.6105 BIRMINGHAM -0.2218
-4.6105 BISEXUAL -0.2218
-4.6105 BISEXUALITY -0.2218
-4.6105 BITTERSWEET -0.2218
-4.6105 BLACKBERRY -0.2218
-4.6105 BLACKBOARD -0.2218
-4.6105 BLACKENING -0.2218
-4.6105 BLACKLIST -0.2218
-4.6105 BLACKSBURG -0.2218
-4.6105 BLACKSMITH -0.2218
-4.6105 BLANDISHMENT -0.2218
-4.6105 BLANDNESS -0.2218
-4.6105 BLASPHEMY -0.2218
-4.6105 BLASTODERM -0.2218
-4.6105 BLASTOMA -0.2218
-4.6105 BLESSEDNESS -0.2218
-4.6105 BLINDFOLD -0.2218
-4.6105 BLINDNESS -0.2218
-4.6105 BLISTERING -0.2218
-4.6105 BLITZKRIEG -0.2218
-4.6105 BLOCKBUSTER -0.2218
-4.6105 BLOODHOUND -0.2218
-4.6105 BLOODLETTING -0.2218
-4.6105 BLOODSTAIN -0.2218
-4.6105 BLOODSTONE -0.2218
-4.6105 BLOODSTREAM -0.2218
-4.6105 BLOODSUCKER -0.2218
-4.6105 BLOOMFIELD -0.2218
-4.6105 BLOOMINGTON -0.2218
-4.6105 BLOSSOMING -0.2218
-4.6105 BLUEBONNET -0.2218
-4.6105 BLUEBOTTLE -0.2218
-4.6105 BLUEPRINT -0.2218
-4.6105 BLUNTNESS -0.2218
-4.6105 BOARDINGHOUSE -0.2218
-4.6105 BODYGUARD -0.2218
-4.6105 BOHEMIAN -0.2218
-4.6105 BOILERPLATE -0.2218
-4.6105 BOLIVIAN -0.2218
-4.6105 BOLSHEVIK -0.2218
-4.6105 BOLSHEVISM -0.2218
-4.6105 BOLSHEVIST -0.2218
-4.6105 BOMBARDIER -0.2218
-4.6105 BOMBARDMENT -0.2218
-4.6105 BONAPARTE -0.2218
-4.6105 BONDHOLDER -0.2218
-4.6105 BOOGIE-WOOGIE -0.2218
-4.6105 BOOKBINDER -0.2218
-4.6105 BOOKKEEPING -0.2218
-4.6105 BOOKMOBILE -0.2218
-4.6105 BOONDOGGLE -0.2218
-4.6105 BOORISHNESS -0.2218
-4.6105 BOOTLEGGING -0.2218
-4.6105 BOOTSTRAP -0.2218
-4.6105 BORDERLINE -0.2218
-4.6105 BOSTONIAN -0.2218
-4.6105 BOTANICAL -0.2218
-4.6105 BOTANIST -0.2218
-4.6105 BOTSWANA -0.2218
-4.6105 BOTTLENECK -0.2218
-4.6105 BOTULISM -0.2218
-4.6105 BOUGAINVILLE -0.2218
-4.6105 BOUGAINVILLEA -0.2218
-4.6105 BOULEVARD -0.2218
-4.6105 BOUNCINESS -0.2218
-4.6105 BOURGEOISIE -0.2218
-4.6105 BOURGUIGNON -0.2218
-4.6105 BOXCARS -0.2218
-4.6105 BRACHIOPOD -0.2218
-4.6105 BRADBURY -0.2218
-4.6105 BRADSTREET -0.2218
-4.6105 BRADYCARDIA -0.2218
-4.6105 BRAGGADOCIO -0.2218
-4.6105 BRAINCHILD -0.2218
-4.6105 BRAINSTORM -0.2218
-4.6105 BRAINSTORMING -0.2218
-4.6105 BRAINWASHING -0.2218
-4.6105 BRANCHLET -0.2218
-4.6105 BRANDENBURG -0.2218
-4.6105 BRASILIA -0.2218
-4.6105 BRATWURST -0.2218
-4.6105 BRAUNSCHWEIG -0.2218
-4.6105 BRAVURA -0.2218
-4.6105 BRAZENNESS -0.2218
-4.6105 BRAZILIAN -0.2218
-4.6105 BRAZZAVILLE -0.2218
-4.6105 BREADBASKET -0.2218
-4.6105 BREADBOX -0.2218
-4.6105 BREADFRUIT -0.2218
-4.6105 BREADWINNER -0.2218
-4.6105 BREAKABLE -0.2218
-4.6105 BREAKFAST -0.2218
-4.6105 BREAKWATER -0.2218
-4.6105 BREASTPLATE -0.2218
-4.6105 BRICKYARD -0.2218
-4.6105 BRIDEGROOM -0.2218
-4.6105 BRIDESMAID -0.2218
-4.6105 BRIDGEPORT -0.2218
-4.6105 BRIGADIER -0.2218
-4.6105 BRILLIANCE -0.2218
-4.6105 BRIMSTONE -0.2218
-4.6105 BRINKMANSHIP -0.2218
-4.6105 BROADCAST -0.2218
-4.6105 BROADCASTER -0.2218
-4.6105 BROADCASTING -0.2218
-4.6105 BROADENING -0.2218
-4.6105 BROADSWORD -0.2218
-4.6105 BRONCHITIS -0.2218
-4.6105 BRONCHOSCOPE -0.2218
-4.6105 BRONTOSAURUS -0.2218
-4.6105 BROOMSTICK -0.2218
-4.6105 BROTHER-IN-LAW -0.2218
-4.6105 BROTHERHOOD -0.2218
-4.6105 BROWNSTONE -0.2218
-4.6105 BROWNSVILLE -0.2218
-4.6105 BRUNNHILDE -0.2218
-4.6105 BRUNSWICK -0.2218
-4.6105 BRUTALITY -0.2218
-4.6105 BRUTALIZATION -0.2218
-4.6105 BRUXELLES -0.2218
-4.6105 BUCHANAN -0.2218
-4.6105 BUCHAREST -0.2218
-4.6105 BUCHENWALD -0.2218
-4.6105 BUCKSKINS -0.2218
-4.6105 BUCOLIC -0.2218
-4.6105 BUDAPEST -0.2218
-4.6105 BUJUMBURA -0.2218
-4.6105 BULGARIA -0.2218
-4.6105 BULGARIAN -0.2218
-4.6105 BULIMIA -0.2218
-4.6105 BULIMIC -0.2218
-4.6105 BULLFIGHTING -0.2218
-4.6105 BUMBLEBEE -0.2218
-4.6105 BUNDESBANK -0.2218
-4.6105 BUNDLING -0.2218
-4.6105 BUREAUCRACY -0.2218
-4.6105 BUREAUCRAT -0.2218
-4.6105 BURGOMASTER -0.2218
-4.6105 BURLINGTON -0.2218
-4.6105 BUSINESSMAN -0.2218
-4.6105 BUSINESSMEN -0.2218
-4.6105 BUSINESSPEOPLE -0.2218
-4.6105 BUSINESSPERSON -0.2218
-4.6105 BUSINESSWOMAN -0.2218
-4.6105 BUTTERFIELD -0.2218
-4.6105 BUTTERMILK -0.2218
-4.6105 BUTTERSCOTCH -0.2218
-4.6105 BUTTONHOLE -0.2218
-4.6105 BUTTRESSING -0.2218
-4.6105 BYELORUSSIA -0.2218
-4.6105 BYPRODUCT -0.2218
-4.6105 BYSTANDER -0.2218
-4.6105 BYZANTINE -0.2218
-4.6105 BYZANTIUM -0.2218
-4.6105 CABDRIVER -0.2218
-4.6105 CABINETRY -0.2218
-4.6105 CABLEGRAM -0.2218
-4.6105 CABRIOLET -0.2218
-4.6105 CACOPHONY -0.2218
-4.6105 CAFETERIA -0.2218
-4.6105 CALABRIA -0.2218
-4.6105 CALAMARI -0.2218
-4.6105 CALAMITY -0.2218
-4.6105 CALCULATION -0.2218
-4.6105 CALCULATOR -0.2218
-4.6105 CALCULUS -0.2218
-4.6105 CALEDONIA -0.2218
-4.6105 CALENDULA -0.2218
-4.6105 CALIBRATION -0.2218
-4.6105 CALIFORNIA -0.2218
-4.6105 CALIFORNIAN -0.2218
-4.6105 CALISTHENICS -0.2218
-4.6105 CALLIGRAPHER -0.2218
-4.6105 CALLIGRAPHY -0.2218
-4.6105 CALLOUSNESS -0.2218
-4.6105 CALUMET -0.2218
-4.6105 CALVINIST -0.2218
-4.6105 CAMARADERIE -0.2218
-4.6105 CAMBODIA -0.2218
-4.6105 CAMBODIAN -0.2218
-4.6105 CAMBRIAN -0.2218
-4.6105 CAMCORDER -0.2218
-4.6105 CAMERAMAN -0.2218
-4.6105 CAMOUFLAGE -0.2218
-4.6105 CAMPAIGNING -0.2218
-4.6105 CAMPGROUND -0.2218
-4.6105 CANADIAN -0.2218
-4.6105 CANCELLATION -0.2218
-4.6105 CANDELABRA -0.2218
-4.6105 CANDIDACY -0.2218
-4.6105 CANDIDATE -0.2218
-4.6105 CANDLELIGHT -0.2218
-4.6105 CANDLEMAKER -0.2218
-4.6105 CANDLESTICK -0.2218
-4.6105 CANNIBALISM -0.2218
-4.6105 CANNONBALL -0.2218
-4.6105 CANONIZATION -0.2218
-4.6105 CANTALOUPE -0.2218
-4.6105 CANTERBURY -0.2218
-4.6105 CANTONESE -0.2218
-4.6105 CANVASSING -0.2218
-4.6105 CAPABILITY -0.2218
-4.6105 CAPACITANCE -0.2218
-4.6105 CAPACITOR -0.2218
-4.6105 CAPACITY -0.2218
-4.6105 CAPILLARY -0.2218
-4.6105 CAPITALISM -0.2218
-4.6105 CAPITALIST -0.2218
-4.6105 CAPITALIZATION -0.2218
-4.6105 CAPITULATION -0.2218
-4.6105 CAPPELLETTI -0.2218
-4.6105 CAPPUCCINO -0.2218
-4.6105 CAPRICORN -0.2218
-4.6105 CAPSAICIN -0.2218
-4.6105 CAPTIVITY -0.2218
-4.6105 CARACARA -0.2218
-4.6105 CARBOHYDRATE -0.2218
-4.6105 CARBONARA -0.2218
-4.6105 CARBONATE -0.2218
-4.6105 CARBONDALE -0.2218
-4.6105 CARBONIFEROUS -0.2218
-4.6105 CARBORUNDUM -0.2218
-4.6105 CARBURETOR -0.2218
-4.6105 CARCINOGEN -0.2218
-4.6105 CARCINOMA -0.2218
-4.6105 CARDBOARD -0.2218
-4.6105 CARDHOLDER -0.2218
-4.6105 CARDIGAN -0.2218
-4.6105 CARDINAL -0.2218
-4.6105 CARDIOLOGIST -0.2218
-4.6105 CARDIOLOGY -0.2218
-4.6105 CARDIZEM -0.2218
-4.6105 CAREERISM -0.2218
-4.6105 CARELESSNESS -0.2218
-4.6105 CARICATURE -0.2218
-4.6105 CARICATURIST -0.2218
-4.6105 CARJACKING -0.2218
-4.6105 CARLSBAD -0.2218
-4.6105 CARMELITE -0.2218
-4.6105 CARMICHAEL -0.2218
-4.6105 CARNATION -0.2218
-4.6105 CARNIVAL -0.2218
-4.6105 CARNIVORE -0.2218
-4.6105 CAROLINA -0.2218
-4.6105 CAROLINAS -0.2218
-4.6105 CAROLINGIAN -0.2218
-4.6105 CAROLINIAN -0.2218
-4.6105 CARPENTER -0.2218
-4.6105 CARPENTRY -0.2218
-4.6105 CARPETBAGGER -0.2218
-4.6105 CARPETING -0.2218
-4.6105 CARTAGENA -0.2218
-4.6105 CARTESIAN -0.2218
-4.6105 CARTHAGINIAN -0.2218
-4.6105 CARTILAGE -0.2218
-4.6105 CARTOONIST -0.2218
-4.6105 CASABLANCA -0.2218
-4.6105 CASANOVA -0.2218
-4.6105 CASSANDRA -0.2218
-4.6105 CASSOWARY -0.2218
-4.6105 CASTILLEJA -0.2218
-4.6105 CASTRATION -0.2218
-4.6105 CASUALNESS -0.2218
-4.6105 CASUALTY -0.2218
-4.6105 CATACLYSM -0.2218
-4.6105 CATALOGER -0.2218
-4.6105 CATALONIA -0.2218
-4.6105 CATALYST -0.2218
-4.6105 CATAMARAN -0.2218
-4.6105 CATAMOUNT -0.2218
-4.6105 CATAPULT -0.2218
-4.6105 CATASTROPHE -0.2218
-4.6105 CATECHISM -0.2218
-4.6105 CATEGORIZATION -0.2218
-4.6105 CATEGORY -0.2218
-4.6105 CATERPILLAR -0.2218
-4.6105 CATHARSIS -0.2218
-4.6105 CATHARTIC -0.2218
-4.6105 CATHEDRAL -0.2218
-4.6105 CATHOLICISM -0.2218
-4.6105 CATSKILLS -0.2218
-4.6105 CAULIFLOWER -0.2218
-4.6105 CAUSALITY -0.2218
-4.6105 CAUTERIZATION -0.2218
-4.6105 CAUTIOUSNESS -0.2218
-4.6105 CAVALCADE -0.2218
-4.6105 CAVENDISH -0.2218
-4.6105 CELANDINE -0.2218
-4.6105 CELEBRANT -0.2218
-4.6105 CELEBRATION -0.2218
-4.6105 CELEBRITY -0.2218
-4.6105 CELERITY -0.2218
-4.6105 CELIBACY -0.2218
-4.6105 CELLULOSE -0.2218
-4.6105 CEMETERY -0.2218
-4.6105 CENOZOIC -0.2218
-4.6105 CENSORSHIP -0.2218
-4.6105 CENTENARIAN -0.2218
-4.6105 CENTENARY -0.2218
-4.6105 CENTENNIAL -0.2218
-4.6105 CENTERFIELDER -0.2218
-4.6105 CENTERFOLD -0.2218
-4.6105 CENTERPIECE -0.2218
-4.6105 CENTIMETER -0.2218
-4.6105 CENTIMETRE -0.2218
-4.6105 CENTIPEDE -0.2218
-4.6105 CENTRALISM -0.2218
-4.6105 CENTRALITY -0.2218
-4.6105 CENTRALIZATION -0.2218
-4.6105 CENTREX -0.2218
-4.6105 CENTRIFUGE -0.2218
-4.6105 CENTRIST -0.2218
-4.6105 CENTURION -0.2218
-4.6105 CEPHALOPOD -0.2218
-4.6105 CEPHALOSPORIN -0.2218
-4.6105 CEREMONIAL -0.2218
-4.6105 CEREMONY -0.2218
-4.6105 CERTIFICATE -0.2218
-4.6105 CERTIFICATION -0.2218
-4.6105 CERVANTES -0.2218
-4.6105 CHAIRMANSHIP -0.2218
-4.6105 CHAIRPERSON -0.2218
-4.6105 CHAIRWOMAN -0.2218
-4.6105 CHALCEDONY -0.2218
-4.6105 CHAMBERLAIN -0.2218
-4.6105 CHAMELEON -0.2218
-4.6105 CHAMPIONSHIP -0.2218
-4.6105 CHANDELIER -0.2218
-4.6105 CHARACTERISTIC -0.2218
-4.6105 CHARACTERIZATION -0.2218
-4.6105 CHARLATAN -0.2218
-4.6105 CHARLEMAGNE -0.2218
-4.6105 CHARLESTON -0.2218
-4.6105 CHARLESTOWN -0.2218
-4.6105 CHARLOTTETOWN -0.2218
-4.6105 CHARTERHOUSE -0.2218
-4.6105 CHARWOMAN -0.2218
-4.6105 CHATTAHOOCHEE -0.2218
-4.6105 CHATTANOOGA -0.2218
-4.6105 CHAUVINISM -0.2218
-4.6105 CHAUVINIST -0.2218
-4.6105 CHECKERBOARD -0.2218
-4.6105 CHEERFULNESS -0.2218
-4.6105 CHELYABINSK -0.2218
-4.6105 CHEMISTRY -0.2218
-4.6105 CHEMOTHERAPY -0.2218
-4.6105 CHERRYSTONE -0.2218
-4.6105 CHESTERFIELD -0.2218
-4.6105 CHESTERTON -0.2218
-4.6105 CHILBLAINS -0.2218
-4.6105 CHILDBEARING -0.2218
-4.6105 CHIMPANZEE -0.2218
-4.6105 CHIROPRACTIC -0.2218
-4.6105 CHIROPRACTOR -0.2218
-4.6105 CHITTERLINGS -0.2218
-4.6105 CHLAMYDIA -0.2218
-4.6105 CHLOROFLUOROCARBON -0.2218
-4.6105 CHLOROFORM -0.2218
-4.6105 CHLOROPHYLL -0.2218
-4.6105 CHLOROPLAST -0.2218
-4.6105 CHLOROPRENE -0.2218
-4.6105 CHOLESTEROL -0.2218
-4.6105 CHOREOGRAPHER -0.2218
-4.6105 CHOREOGRAPHY -0.2218
-4.6105 CHRISTCHURCH -0.2218
-4.6105 CHRISTENDOM -0.2218
-4.6105 CHRISTENING -0.2218
-4.6105 CHRISTIANITY -0.2218
-4.6105 CHRISTIANIZATION -0.2218
-4.6105 CHRISTMASTIME -0.2218
-4.6105 CHRISTOPHER -0.2218
-4.6105 CHROMATOGRAM -0.2218
-4.6105 CHROMATOGRAPHY -0.2218
-4.6105 CHROMOSOME -0.2218
-4.6105 CHRONICLE -0.2218
-4.6105 CHRONICLER -0.2218
-4.6105 CHRONOLOGY -0.2218
-4.6105 CHRYSALIS -0.2218
-4.6105 CHRYSANTHEMUM -0.2218
-4.6105 CILANTRO -0.2218
-4.6105 CINCINNATI -0.2218
-4.6105 CINDERELLA -0.2218
-4.6105 CINEMATOGRAPHER -0.2218
-4.6105 CINEMATOGRAPHY -0.2218
-4.6105 CIRCULATION -0.2218
-4.6105 CIRCUMCISION -0.2218
-4.6105 CIRCUMFERENCE -0.2218
-4.6105 CIRCUMSPECTION -0.2218
-4.6105 CIRCUMSTANCE -0.2218
-4.6105 CIRCUMSTANCES -0.2218
-4.6105 CIRCUMVENTION -0.2218
-4.6105 CISTERCIAN -0.2218
-4.6105 CITIZENRY -0.2218
-4.6105 CITIZENSHIP -0.2218
-4.6105 CIVILIAN -0.2218
-4.6105 CIVILITY -0.2218
-4.6105 CIVILIZATION -0.2218
-4.6105 CLAIRVOYANCE -0.2218
-4.6105 CLAIRVOYANT -0.2218
-4.6105 CLAMPDOWN -0.2218
-4.6105 CLAPBOARD -0.2218
-4.6105 CLARIFICATION -0.2218
-4.6105 CLARINET -0.2218
-4.6105 CLARINETIST -0.2218
-4.6105 CLARKSBURG -0.2218
-4.6105 CLASSICAL -0.2218
-4.6105 CLASSICISM -0.2218
-4.6105 CLASSICIST -0.2218
-4.6105 CLASSIFICATION -0.2218
-4.6105 CLASSIFIED -0.2218
-4.6105 CLAUSTROPHOBIA -0.2218
-4.6105 CLAVICHORD -0.2218
-4.6105 CLAVICLE -0.2218
-4.6105 CLEANLINESS -0.2218
-4.6105 CLEMATIS -0.2218
-4.6105 CLEMENCY -0.2218
-4.6105 CLEMENTINE -0.2218
-4.6105 CLEOPATRA -0.2218
-4.6105 CLERGYMAN -0.2218
-4.6105 CLEVELAND -0.2218
-4.6105 CLEVERNESS -0.2218
-4.6105 CLIENTELE -0.2218
-4.6105 CLIFFHANGER -0.2218
-4.6105 CLIMATOLOGIST -0.2218
-4.6105 CLINICIAN -0.2218
-4.6105 CLIPBOARD -0.2218
-4.6105 CLITORIS -0.2218
-4.6105 CLOMIPRAMINE -0.2218
-4.6105 CLONIDINE -0.2218
-4.6105 CLOTHESHORSE -0.2218
-4.6105 CLOUDBURST -0.2218
-4.6105 CLOUDINESS -0.2218
-4.6105 CLOVERLEAF -0.2218
-4.6105 CLOZAPINE -0.2218
-4.6105 CLUMSINESS -0.2218
-4.6105 CLUSTERING -0.2218
-4.6105 CLYDESDALE -0.2218
-4.6105 COAGULATION -0.2218
-4.6105 COALESCENCE -0.2218
-4.6105 COALITION -0.2218
-4.6105 COBBLESTONE -0.2218
-4.6105 CODIFICATION -0.2218
-4.6105 COEFFICIENT -0.2218
-4.6105 COELACANTH -0.2218
-4.6105 COEXISTENCE -0.2218
-4.6105 COGITATION -0.2218
-4.6105 COGNITION -0.2218
-4.6105 COGNIZANCE -0.2218
-4.6105 COHABITATION -0.2218
-4.6105 COHERENCE -0.2218
-4.6105 COHESIVENESS -0.2218
-4.6105 COINCIDENCE -0.2218
-4.6105 COINSURANCE -0.2218
-4.6105 COLCHICINE -0.2218
-4.6105 COLISEUM -0.2218
-4.6105 COLLABORATION -0.2218
-4.6105 COLLABORATIONIST -0.2218
-4.6105 COLLABORATOR -0.2218
-4.6105 COLLATERAL -0.2218
-4.6105 COLLECTIBLE -0.2218
-4.6105 COLLECTING -0.2218
-4.6105 COLLECTION -0.2218
-4.6105 COLLECTIVE -0.2218
-4.6105 COLLECTIVISM -0.2218
-4.6105 COLLECTIVIST -0.2218
-4.6105 COLLECTIVIZATION -0.2218
-4.6105 COLLOCATION -0.2218
-4.6105 COLLODION -0.2218
-4.6105 COLLOQUIUM -0.2218
-4.6105 COLOMBIA -0.2218
-4.6105 COLOMBIAN -0.2218
-4.6105 COLONIAL -0.2218
-4.6105 COLONIALISM -0.2218
-4.6105 COLONIALIST -0.2218
-4.6105 COLONIST -0.2218
-4.6105 COLONIZATION -0.2218
-4.6105 COLONIZER -0.2218
-4.6105 COLORADAN -0.2218
-4.6105 COLORATION -0.2218
-4.6105 COLORATURA -0.2218
-4.6105 COLOSSEUM -0.2218
-4.6105 COLTSFOOT -0.2218
-4.6105 COLUMBIA -0.2218
-4.6105 COLUMBINE -0.2218
-4.6105 COLUMBUS -0.2218
-4.6105 COLUMNIST -0.2218
-4.6105 COMBATANT -0.2218
-4.6105 COMBATIVENESS -0.2218
-4.6105 COMBINATION -0.2218
-4.6105 COMBINING -0.2218
-4.6105 COMBUSTION -0.2218
-4.6105 COMEDIAN -0.2218
-4.6105 COMEDIENNE -0.2218
-4.6105 COMEUPPANCE -0.2218
-4.6105 COMMANDANT -0.2218
-4.6105 COMMANDMENT -0.2218
-4.6105 COMMEMORATION -0.2218
-4.6105 COMMEMORATIVE -0.2218
-4.6105 COMMENCEMENT -0.2218
-4.6105 COMMENDATION -0.2218
-4.6105 COMMENTARY -0.2218
-4.6105 COMMENTATOR -0.2218
-4.6105 COMMERCIALISM -0.2218
-4.6105 COMMERCIALIZATION -0.2218
-4.6105 COMMISSARY -0.2218
-4.6105 COMMISSIONER -0.2218
-4.6105 COMMISSIONING -0.2218
-4.6105 COMMITMENT -0.2218
-4.6105 COMMITTEEMAN -0.2218
-4.6105 COMMODITY -0.2218
-4.6105 COMMONALITY -0.2218
-4.6105 COMMONPLACE -0.2218
-4.6105 COMMONWEALTH -0.2218
-4.6105 COMMUNICATING -0.2218
-4.6105 COMMUNICATION -0.2218
-4.6105 COMMUNICATIONS -0.2218
-4.6105 COMMUNICATOR -0.2218
-4.6105 COMMUNION -0.2218
-4.6105 COMMUNIQUE -0.2218
-4.6105 COMMUNISM -0.2218
-4.6105 COMMUNIST -0.2218
-4.6105 COMMUNITY -0.2218
-4.6105 COMMUNIZATION -0.2218
-4.6105 COMMUTATION -0.2218
-4.6105 COMMUTING -0.2218
-4.6105 COMPACTNESS -0.2218
-4.6105 COMPANION -0.2218
-4.6105 COMPANIONSHIP -0.2218
-4.6105 COMPANIONWAY -0.2218
-4.6105 COMPARABILITY -0.2218
-4.6105 COMPARATIVE -0.2218
-4.6105 COMPARING -0.2218
-4.6105 COMPARISON -0.2218
-4.6105 COMPARTMENT -0.2218
-4.6105 COMPASSION -0.2218
-4.6105 COMPATIBILITY -0.2218
-4.6105 COMPATRIOT -0.2218
-4.6105 COMPENDIUM -0.2218
-4.6105 COMPENSATION -0.2218
-4.6105 COMPETENCE -0.2218
-4.6105 COMPETENCY -0.2218
-4.6105 COMPETITION -0.2218
-4.6105 COMPETITIVENESS -0.2218
-4.6105 COMPETITOR -0.2218
-4.6105 COMPILATION -0.2218
-4.6105 COMPILING -0.2218
-4.6105 COMPLACENCY -0.2218
-4.6105 COMPLAINANT -0.2218
-4.6105 COMPLAINER -0.2218
-4.6105 COMPLAINT -0.2218
-4.6105 COMPLEMENT -0.2218
-4.6105 COMPLEMENTARY -0.2218
-4.6105 COMPLETENESS -0.2218
-4.6105 COMPLETION -0.2218
-4.6105 COMPLEX -0.2218
-4.6105 COMPLEXION -0.2218
-4.6105 COMPLEXITY -0.2218
-4.6105 COMPLIANCE -0.2218
-4.6105 COMPLICATION -0.2218
-4.6105 COMPLICITY -0.2218
-4.6105 COMPLIMENT -0.2218
-4.6105 COMPLIMENTS -0.2218
-4.6105 COMPONENT -0.2218
-4.6105 COMPORTMENT -0.2218
-4.6105 COMPOSING -0.2218
-4.6105 COMPOSITE -0.2218
-4.6105 COMPOSITION -0.2218
-4.6105 COMPOUNDING -0.2218
-4.6105 COMPREHENSIBILITY -0.2218
-4.6105 COMPREHENSION -0.2218
-4.6105 COMPREHENSIVE -0.2218
-4.6105 COMPRESSING -0.2218
-4.6105 COMPRESSION -0.2218
-4.6105 COMPRESSOR -0.2218
-4.6105 COMPROMISE -0.2218
-4.6105 COMPROMISER -0.2218
-4.6105 COMPTROLLER -0.2218
-4.6105 COMPULSION -0.2218
-4.6105 COMPULSIVE -0.2218
-4.6105 COMPUNCTION -0.2218
-4.6105 COMPUTATION -0.2218
-4.6105 COMPUTER -0.2218
-4.6105 COMPUTERIZATION -0.2218
-4.6105 COMPUTING -0.2218
-4.6105 CONCATENATION -0.2218
-4.6105 CONCEALING -0.2218
-4.6105 CONCEALMENT -0.2218
-4.6105 CONCEDING -0.2218
-4.6105 CONCENTRATE -0.2218
-4.6105 CONCENTRATION -0.2218
-4.6105 CONCEPCION -0.2218
-4.6105 CONCEPTION -0.2218
-4.6105 CONCEPTUALIZATION -0.2218
-4.6105 CONCERTINA -0.2218
-4.6105 CONCERTO -0.2218
-4.6105 CONCESSION -0.2218
-4.6105 CONCESSIONAIRE -0.2218
-4.6105 CONCIERGE -0.2218
-4.6105 CONCILIATION -0.2218
-4.6105 CONCILIATOR -0.2218
-4.6105 CONCLUSION -0.2218
-4.6105 CONCOCTION -0.2218
-4.6105 CONCOMITANT -0.2218
-4.6105 CONCUBINAGE -0.2218
-4.6105 CONCUBINE -0.2218
-4.6105 CONCURRENCE -0.2218
-4.6105 CONCUSSION -0.2218
-4.6105 CONDEMNATION -0.2218
-4.6105 CONDENSATE -0.2218
-4.6105 CONDENSATION -0.2218
-4.6105 CONDENSER -0.2218
-4.6105 CONDENSING -0.2218
-4.6105 CONDESCENSION -0.2218
-4.6105 CONDIMENT -0.2218
-4.6105 CONDITION -0.2218
-4.6105 CONDITIONALITY -0.2218
-4.6105 CONDITIONER -0.2218
-4.6105 CONDITIONING -0.2218
-4.6105 CONDITIONS -0.2218
-4.6105 CONDOLENCE -0.2218
-4.6105 CONDOMINIUM -0.2218
-4.6105 CONDUCTING -0.2218
-4.6105 CONDUCTION -0.2218
-4.6105 CONDUCTIVITY -0.2218
-4.6105 CONDUCTOR -0.2218
-4.6105 CONESTOGA -0.2218
-4.6105 CONFABULATION -0.2218
-4.6105 CONFECTION -0.2218
-4.6105 CONFECTIONARY -0.2218
-4.6105 CONFECTIONER -0.2218
-4.6105 CONFECTIONERY -0.2218
-4.6105 CONFEDERACY -0.2218
-4.6105 CONFEDERATE -0.2218
-4.6105 CONFEDERATION -0.2218
-4.6105 CONFERENCE -0.2218
-4.6105 CONFESSION -0.2218
-4.6105 CONFESSIONAL -0.2218
-4.6105 CONFIDANT -0.2218
-4.6105 CONFIDANTE -0.2218
-4.6105 CONFIDENCE -0.2218
-4.6105 CONFIDENTIALITY -0.2218
-4.6105 CONFIGURATION -0.2218
-4.6105 CONFINEMENT -0.2218
-4.6105 CONFIRMATION -0.2218
-4.6105 CONFISCATION -0.2218
-4.6105 CONFLAGRATION -0.2218
-4.6105 CONFLICT -0.2218
-4.6105 CONFLUENCE -0.2218
-4.6105 CONFLUENT -0.2218
-4.6105 CONFORMANCE -0.2218
-4.6105 CONFORMIST -0.2218
-4.6105 CONFORMITY -0.2218
-4.6105 CONFRONTATION -0.2218
-4.6105 CONFUCIAN -0.2218
-4.6105 CONFUCIANISM -0.2218
-4.6105 CONFUCIUS -0.2218
-4.6105 CONFUSION -0.2218
-4.6105 CONGENIALITY -0.2218
-4.6105 CONGESTION -0.2218
-4.6105 CONGLOMERATE -0.2218
-4.6105 CONGLOMERATION -0.2218
-4.6105 CONGOLESE -0.2218
-4.6105 CONGRATULATION -0.2218
-4.6105 CONGRATULATIONS -0.2218
-4.6105 CONGREGANT -0.2218
-4.6105 CONGREGATION -0.2218
-4.6105 CONGRESSMAN -0.2218
-4.6105 CONGRESSWOMAN -0.2218
-4.6105 CONGRUENCE -0.2218
-4.6105 CONGRUITY -0.2218
-4.6105 CONJECTURE -0.2218
-4.6105 CONJUGATE -0.2218
-4.6105 CONJUGATION -0.2218
-4.6105 CONJUNCTION -0.2218
-4.6105 CONJUNCTIVA -0.2218
-4.6105 CONNECTICUT -0.2218
-4.6105 CONNECTION -0.2218
-4.6105 CONNECTIVE -0.2218
-4.6105 CONNECTIVITY -0.2218
-4.6105 CONNEXION -0.2218
-4.6105 CONNIPTION -0.2218
-4.6105 CONNIVANCE -0.2218
-4.6105 CONNOTATION -0.2218
-4.6105 CONQUEST -0.2218
-4.6105 CONSCIOUSNESS -0.2218
-4.6105 CONSCRIPT -0.2218
-4.6105 CONSCRIPTION -0.2218
-4.6105 CONSECRATION -0.2218
-4.6105 CONSENSUS -0.2218
-4.6105 CONSEQUENCE -0.2218
-4.6105 CONSERVANCY -0.2218
-4.6105 CONSERVATION -0.2218
-4.6105 CONSERVATIONIST -0.2218
-4.6105 CONSERVATISM -0.2218
-4.6105 CONSERVATIVE -0.2218
-4.6105 CONSERVATIVISM -0.2218
-4.6105 CONSERVATOR -0.2218
-4.6105 CONSERVATORY -0.2218
-4.6105 CONSIDERATION -0.2218
-4.6105 CONSIGNMENT -0.2218
-4.6105 CONSISTENCE -0.2218
-4.6105 CONSISTENCY -0.2218
-4.6105 CONSOLATION -0.2218
-4.6105 CONSOLIDATION -0.2218
-4.6105 CONSONANT -0.2218
-4.6105 CONSORTIUM -0.2218
-4.6105 CONSPIRACY -0.2218
-4.6105 CONSPIRATOR -0.2218
-4.6105 CONSTABLE -0.2218
-4.6105 CONSTABULARY -0.2218
-4.6105 CONSTANCE -0.2218
-4.6105 CONSTANCY -0.2218
-4.6105 CONSTANT -0.2218
-4.6105 CONSTANTINA -0.2218
-4.6105 CONSTANTINE -0.2218
-4.6105 CONSTANTINOPLE -0.2218
-4.6105 CONSTELLATION -0.2218
-4.6105 CONSTERNATION -0.2218
-4.6105 CONSTIPATION -0.2218
-4.6105 CONSTITUENCY -0.2218
-4.6105 CONSTITUENT -0.2218
-4.6105 CONSTITUTION -0.2218
-4.6105 CONSTITUTIONAL -0.2218
-4.6105 CONSTRAINT -0.2218
-4.6105 CONSTRICTION -0.2218
-4.6105 CONSTRICTOR -0.2218
-4.6105 CONSTRUCT -0.2218
-4.6105 CONSTRUCTION -0.2218
-4.6105 CONSTRUCTOR -0.2218
-4.6105 CONSULATE -0.2218
-4.6105 CONSULSHIP -0.2218
-4.6105 CONSULTANCY -0.2218
-4.6105 CONSULTANT -0.2218
-4.6105 CONSULTATION -0.2218
-4.6105 CONSUMERISM -0.2218
-4.6105 CONSUMMATION -0.2218
-4.6105 CONSUMPTION -0.2218
-4.6105 CONTAGION -0.2218
-4.6105 CONTAINMENT -0.2218
-4.6105 CONTAMINANT -0.2218
-4.6105 CONTAMINATION -0.2218
-4.6105 CONTEMPLATION -0.2218
-4.6105 CONTEMPLATIVE -0.2218
-4.6105 CONTEMPORARIES -0.2218
-4.6105 CONTEMPORARY -0.2218
-4.6105 CONTEMPT -0.2218
-4.6105 CONTENDER -0.2218
-4.6105 CONTENTION -0.2218
-4.6105 CONTENTIOUSNESS -0.2218
-4.6105 CONTENTMENT -0.2218
-4.6105 CONTENTS -0.2218
-4.6105 CONTESTANT -0.2218
-4.6105 CONTEXT -0.2218
-4.6105 CONTINENT -0.2218
-4.6105 CONTINGENCY -0.2218
-4.6105 CONTINGENT -0.2218
-4.6105 CONTINUANCE -0.2218
-4.6105 CONTINUATION -0.2218
-4.6105 CONTINUITY -0.2218
-4.6105 CONTINUUM -0.2218
-4.6105 CONTORTION -0.2218
-4.6105 CONTORTIONIST -0.2218
-4.6105 CONTRABAND -0.2218
-4.6105 CONTRABASSOON -0.2218
-4.6105 CONTRACEPTION -0.2218
-4.6105 CONTRACEPTIVE -0.2218
-4.6105 CONTRACT -0.2218
-4.6105 CONTRACTING -0.2218
-4.6105 CONTRACTION -0.2218
-4.6105 CONTRACTOR -0.2218
-4.6105 CONTRADICTION -0.2218
-4.6105 CONTRADICTORY -0.2218
-4.6105 CONTRAPTION -0.2218
-4.6105 CONTRARIAN -0.2218
-4.6105 CONTRARINESS -0.2218
-4.6105 CONTRARY -0.2218
-4.6105 CONTRAST -0.2218
-4.6105 CONTRAVENTION -0.2218
-4.6105 CONTRETEMPS -0.2218
-4.6105 CONTRIBUTION -0.2218
-4.6105 CONTRIBUTOR -0.2218
-4.6105 CONTRITION -0.2218
-4.6105 CONTRIVANCE -0.2218
-4.6105 CONTROLLER -0.2218
-4.6105 CONTROVERSY -0.2218
-4.6105 CONTUSION -0.2218
-4.6105 CONUNDRUM -0.2218
-4.6105 CONVALESCENCE -0.2218
-4.6105 CONVALESCENT -0.2218
-4.6105 CONVECTION -0.2218
-4.6105 CONVENIENCE -0.2218
-4.6105 CONVENIENCES -0.2218
-4.6105 CONVENING -0.2218
-4.6105 CONVENTION -0.2218
-4.6105 CONVENTIONEER -0.2218
-4.6105 CONVERGENCE -0.2218
-4.6105 CONVERGING -0.2218
-4.6105 CONVERSATION -0.2218
-4.6105 CONVERSATIONALIST -0.2218
-4.6105 CONVERSION -0.2218
-4.6105 CONVERTIBILITY -0.2218
-4.6105 CONVERTIBLE -0.2218
-4.6105 CONVEYANCE -0.2218
-4.6105 CONVICTION -0.2218
-4.6105 CONVOCATION -0.2218
-4.6105 CONVOLUTION -0.2218
-4.6105 CONVULSION -0.2218
-4.6105 COOPERATION -0.2218
-4.6105 COOPERATIVE -0.2218
-4.6105 COOPERSTOWN -0.2218
-4.6105 COORDINATE -0.2218
-4.6105 COORDINATION -0.2218
-4.6105 COORDINATOR -0.2218
-4.6105 COPARTNER -0.2218
-4.6105 COPENHAGEN -0.2218
-4.6105 COPERNICUS -0.2218
-4.6105 COPPERSMITH -0.2218
-4.6105 COPYREADER -0.2218
-4.6105 COPYWRITER -0.2218
-4.6105 CORESPONDENT -0.2218
-4.6105 CORIANDER -0.2218
-4.6105 CORINTHIAN -0.2218
-4.6105 CORKSCREW -0.2218
-4.6105 CORMORANT -0.2218
-4.6105 CORNBREAD -0.2218
-4.6105 CORNCRIB -0.2218
-4.6105 CORNERBACK -0.2218
-4.6105 CORNERSTONE -0.2218
-4.6105 CORNFIELD -0.2218
-4.6105 CORNFLOWER -0.2218
-4.6105 CORNHUSK -0.2218
-4.6105 CORNHUSKING -0.2218
-4.6105 CORNSTALK -0.2218
-4.6105 CORNSTARCH -0.2218
-4.6105 CORNUCOPIA -0.2218
-4.6105 CORNWALLIS -0.2218
-4.6105 COROLLARY -0.2218
-4.6105 CORONARY -0.2218
-4.6105 CORONATION -0.2218
-4.6105 CORPORATION -0.2218
-4.6105 CORPORATISM -0.2218
-4.6105 CORPORATIST -0.2218
-4.6105 CORRECTIONS -0.2218
-4.6105 CORRECTNESS -0.2218
-4.6105 CORREGIDOR -0.2218
-4.6105 CORRELATION -0.2218
-4.6105 CORRESPONDENCE -0.2218
-4.6105 CORRESPONDENT -0.2218
-4.6105 CORROBORATION -0.2218
-4.6105 CORTICOSTEROID -0.2218
-4.6105 CORTISOL -0.2218
-4.6105 CORTISONE -0.2218
-4.6105 CORTLAND -0.2218
-4.6105 COSMETIC -0.2218
-4.6105 COSMETOLOGY -0.2218
-4.6105 COSMOLOGY -0.2218
-4.6105 COSMONAUT -0.2218
-4.6105 COSMOPOLITAN -0.2218
-4.6105 COTTONMOUTH -0.2218
-4.6105 COTTONSEED -0.2218
-4.6105 COTTONWOOD -0.2218
-4.6105 COUNCILMAN -0.2218
-4.6105 COUNCILWOMAN -0.2218
-4.6105 COUNSELING -0.2218
-4.6105 COUNTENANCE -0.2218
-4.6105 COUNTERATTACK -0.2218
-4.6105 COUNTERBALANCE -0.2218
-4.6105 COUNTERCHARGE -0.2218
-4.6105 COUNTERCLAIM -0.2218
-4.6105 COUNTERCULTURE -0.2218
-4.6105 COUNTERESPIONAGE -0.2218
-4.6105 COUNTERFEIT -0.2218
-4.6105 COUNTERFEITER -0.2218
-4.6105 COUNTERINSURGENCY -0.2218
-4.6105 COUNTERINTELLIGENCE -0.2218
-4.6105 COUNTERMAN -0.2218
-4.6105 COUNTERMEASURE -0.2218
-4.6105 COUNTERMOVE -0.2218
-4.6105 COUNTEROFFENSIVE -0.2218
-4.6105 COUNTEROFFER -0.2218
-4.6105 COUNTERPART -0.2218
-4.6105 COUNTERPOINT -0.2218
-4.6105 COUNTERPROPOSAL -0.2218
-4.6105 COUNTERPUNCH -0.2218
-4.6105 COUNTERREVOLUTION -0.2218
-4.6105 COUNTERREVOLUTIONARY -0.2218
-4.6105 COUNTERSUIT -0.2218
-4.6105 COUNTERTENOR -0.2218
-4.6105 COUNTERTERRORISM -0.2218
-4.6105 COUNTERTERRORIST -0.2218
-4.6105 COUNTERTOP -0.2218
-4.6105 COUNTERWEIGHT -0.2218
-4.6105 COUNTRYFOLK -0.2218
-4.6105 COUNTRYMAN -0.2218
-4.6105 COUNTRYSIDE -0.2218
-4.6105 COURT-MARTIAL -0.2218
-4.6105 COURTYARD -0.2218
-4.6105 COVENANT -0.2218
-4.6105 COVENTRY -0.2218
-4.6105 CRACKERJACK -0.2218
-4.6105 CRAFTSMAN -0.2218
-4.6105 CRAFTSMANSHIP -0.2218
-4.6105 CRANBERRY -0.2218
-4.6105 CRANESBILL -0.2218
-4.6105 CRANKSHAFT -0.2218
-4.6105 CRAZINESS -0.2218
-4.6105 CREATIONISM -0.2218
-4.6105 CREATIVENESS -0.2218
-4.6105 CREATIVITY -0.2218
-4.6105 CREDENTIAL -0.2218
-4.6105 CREDENTIALS -0.2218
-4.6105 CREDENZA -0.2218
-4.6105 CREDIBILITY -0.2218
-4.6105 CREDITWORTHINESS -0.2218
-4.6105 CREDULITY -0.2218
-4.6105 CREEPINESS -0.2218
-4.6105 CREMATION -0.2218
-4.6105 CREMATORIUM -0.2218
-4.6105 CRESCENDO -0.2218
-4.6105 CRETACEOUS -0.2218
-4.6105 CRIMINAL -0.2218
-4.6105 CRIMINALITY -0.2218
-4.6105 CRIMINALIZATION -0.2218
-4.6105 CRIMINOLOGIST -0.2218
-4.6105 CRIMINOLOGY -0.2218
-4.6105 CRISPNESS -0.2218
-4.6105 CRISSCROSS -0.2218
-4.6105 CRITERION -0.2218
-4.6105 CRITICALITY -0.2218
-4.6105 CRITICISM -0.2218
-4.6105 CROCODILE -0.2218
-4.6105 CROCODILIAN -0.2218
-4.6105 CRONYISM -0.2218
-4.6105 CROOKEDNESS -0.2218
-4.6105 CROSS-REFERENCE -0.2218
-4.6105 CROSSBONES -0.2218
-4.6105 CROSSCURRENT -0.2218
-4.6105 CROSSROADS -0.2218
-4.6105 CRUCIBLE -0.2218
-4.6105 CRUCIFIX -0.2218
-4.6105 CRUCIFIXION -0.2218
-4.6105 CRUSTACEAN -0.2218
-4.6105 CRYOGENICS -0.2218
-4.6105 CRYSTALLIZING -0.2218
-4.6105 CRYSTALLOGRAPHER -0.2218
-4.6105 CRYSTALLOGRAPHY -0.2218
-4.6105 CUBICLE -0.2218
-4.6105 CUBISM -0.2218
-4.6105 CUCUMBER -0.2218
-4.6105 CULBERTSON -0.2218
-4.6105 CULMINATION -0.2218
-4.6105 CULPABILITY -0.2218
-4.6105 CULTIVATION -0.2218
-4.6105 CUMBERLAND -0.2218
-4.6105 CUNEIFORM -0.2218
-4.6105 CUNNILINGUS -0.2218
-4.6105 CUNNINGHAM -0.2218
-4.6105 CUPIDITY -0.2218
-4.6105 CURATIVE -0.2218
-4.6105 CURIOSITY -0.2218
-4.6105 CURITIBA -0.2218
-4.6105 CURRICULUM -0.2218
-4.6105 CURTAILMENT -0.2218
-4.6105 CUSTODIAN -0.2218
-4.6105 CUTICLE -0.2218
-4.6105 CUTTLEFISH -0.2218
-4.6105 CYANAMID -0.2218
-4.6105 CYBERSEX -0.2218
-4.6105 CYBERSPACE -0.2218
-4.6105 CYCLADES -0.2218
-4.6105 CYCLIST -0.2218
-4.6105 CYCLOSTOME -0.2218
-4.6105 CYCLOTRON -0.2218
-4.6105 CYNICISM -0.2218
-4.6105 CYTOLOGY -0.2218
-4.6105 CYTOMEGALOVIRUS -0.2218
-4.6105 CYTOPLASM -0.2218
-4.6105 CZECHOSLOVAK -0.2218
-4.6105 CZECHOSLOVAKIA -0.2218
-4.6105 CZECHOSLOVAKIAN -0.2218
-4.6105 DACHSHUND -0.2218
-4.6105 DALMATIAN -0.2218
-4.6105 DAMASCUS -0.2218
-4.6105 DAMINOZIDE -0.2218
-4.6105 DAMNATION -0.2218
-4.6105 DAMOCLES -0.2218
-4.6105 DAMPENING -0.2218
-4.6105 DANDELION -0.2218
-4.6105 DANDYISM -0.2218
-4.6105 DANGEROUSNESS -0.2218
-4.6105 DANGLING -0.2218
-4.6105 DAREDEVIL -0.2218
-4.6105 DARJEELING -0.2218
-4.6105 DARKENING -0.2218
-4.6105 DARTBOARD -0.2218
-4.6105 DARWINIAN -0.2218
-4.6105 DARWINISM -0.2218
-4.6105 DAUGHTER-IN-LAW -0.2218
-4.6105 DAVENPORT -0.2218
-4.6105 DAYDREAMING -0.2218
-4.6105 DEADLINESS -0.2218
-4.6105 DEBARMENT -0.2218
-4.6105 DEBASEMENT -0.2218
-4.6105 DEBILITY -0.2218
-4.6105 DEBRIEFING -0.2218
-4.6105 DEBUNKING -0.2218
-4.6105 DEBUTANTE -0.2218
-4.6105 DECADENCE -0.2218
-4.6105 DECADENT -0.2218
-4.6105 DECAPITATION -0.2218
-4.6105 DECATHLON -0.2218
-4.6105 DECEDENT -0.2218
-4.6105 DECELERATION -0.2218
-4.6105 DECENTRALIZATION -0.2218
-4.6105 DECEPTION -0.2218
-4.6105 DECILITER -0.2218
-4.6105 DECIMATION -0.2218
-4.6105 DECISIVENESS -0.2218
-4.6105 DECLARATION -0.2218
-4.6105 DECOMPOSITION -0.2218
-4.6105 DECOMPRESSION -0.2218
-4.6105 DECONGESTANT -0.2218
-4.6105 DECONSTRUCTION -0.2218
-4.6105 DECONTAMINATION -0.2218
-4.6105 DECORATION -0.2218
-4.6105 DECRIMINALIZATION -0.2218
-4.6105 DEDICATION -0.2218
-4.6105 DEDUCTIBLE -0.2218
-4.6105 DEDUCTION -0.2218
-4.6105 DEFAMATION -0.2218
-4.6105 DEFEATISM -0.2218
-4.6105 DEFEATIST -0.2218
-4.6105 DEFECTION -0.2218
-4.6105 DEFENDANT -0.2218
-4.6105 DEFENSIVE -0.2218
-4.6105 DEFENSIVENESS -0.2218
-4.6105 DEFERMENT -0.2218
-4.6105 DEFIBRILLATOR -0.2218
-4.6105 DEFICIENCY -0.2218
-4.6105 DEFINITION -0.2218
-4.6105 DEFLATION -0.2218
-4.6105 DEFLECTION -0.2218
-4.6105 DEFLECTOR -0.2218
-4.6105 DEFOLIANT -0.2218
-4.6105 DEFORESTATION -0.2218
-4.6105 DEFORMATION -0.2218
-4.6105 DEFORMITY -0.2218
-4.6105 DEFUSING -0.2218
-4.6105 DEGENERACY -0.2218
-4.6105 DEGENERATE -0.2218
-4.6105 DEGENERATION -0.2218
-4.6105 DEGRADATION -0.2218
-4.6105 DEHUMANIZATION -0.2218
-4.6105 DEHUMIDIFIER -0.2218
-4.6105 DEHYDRATION -0.2218
-4.6105 DEIFICATION -0.2218
-4.6105 DELACROIX -0.2218
-4.6105 DELAWARIAN -0.2218
-4.6105 DELEGATING -0.2218
-4.6105 DELEGATION -0.2218
-4.6105 DELIBERATION -0.2218
-4.6105 DELICACY -0.2218
-4.6105 DELICATESSEN -0.2218
-4.6105 DELINEATION -0.2218
-4.6105 DELINQUENCY -0.2218
-4.6105 DELINQUENT -0.2218
-4.6105 DELIRIUM -0.2218
-4.6105 DELIVERABLE -0.2218
-4.6105 DELIVERANCE -0.2218
-4.6105 DEMAGOGUERY -0.2218
-4.6105 DEMAGOGY -0.2218
-4.6105 DEMARCATION -0.2218
-4.6105 DEMENTIA -0.2218
-4.6105 DEMETRIUS -0.2218
-4.6105 DEMOBILIZATION -0.2218
-4.6105 DEMOCRACY -0.2218
-4.6105 DEMOCRAT -0.2218
-4.6105 DEMOCRATIZATION -0.2218
-4.6105 DEMODULATION -0.2218
-4.6105 DEMOGRAPHER -0.2218
-4.6105 DEMOGRAPHIC -0.2218
-4.6105 DEMOGRAPHY -0.2218
-4.6105 DEMOLISHING -0.2218
-4.6105 DEMOLITION -0.2218
-4.6105 DEMONIZATION -0.2218
-4.6105 DEMONSTRATION -0.2218
-4.6105 DEMONSTRATIVE -0.2218
-4.6105 DEMONSTRATOR -0.2218
-4.6105 DEMORALIZATION -0.2218
-4.6105 DENATIONALIZATION -0.2218
-4.6105 DENOMINATION -0.2218
-4.6105 DENOMINATOR -0.2218
-4.6105 DENSITOMETER -0.2218
-4.6105 DENTISTRY -0.2218
-4.6105 DENTITION -0.2218
-4.6105 DENUNCIATION -0.2218
-4.6105 DEODORANT -0.2218
-4.6105 DEPARDIEU -0.2218
-4.6105 DEPARTED -0.2218
-4.6105 DEPARTMENT -0.2218
-4.6105 DEPENDABILITY -0.2218
-4.6105 DEPENDENCE -0.2218
-4.6105 DEPENDENCY -0.2218
-4.6105 DEPENDENT -0.2218
-4.6105 DEPICTING -0.2218
-4.6105 DEPICTION -0.2218
-4.6105 DEPILATORY -0.2218
-4.6105 DEPLETION -0.2218
-4.6105 DEPLOYMENT -0.2218
-4.6105 DEPOPULATION -0.2218
-4.6105 DEPORTATION -0.2218
-4.6105 DEPORTMENT -0.2218
-4.6105 DEPOSITARY -0.2218
-4.6105 DEPOSITION -0.2218
-4.6105 DEPOSITOR -0.2218
-4.6105 DEPOSITORY -0.2218
-4.6105 DEPRAVATION -0.2218
-4.6105 DEPRAVITY -0.2218
-4.6105 DEPRECIATION -0.2218
-4.6105 DEPREDATION -0.2218
-4.6105 DEPRESSANT -0.2218
-4.6105 DEPRESSION -0.2218
-4.6105 DEPRESSIVE -0.2218
-4.6105 DEPRIVATION -0.2218
-4.6105 DERAILMENT -0.2218
-4.6105 DEREGULATING -0.2218
-4.6105 DEREGULATION -0.2218
-4.6105 DERELICT -0.2218
-4.6105 DERELICTION -0.2218
-4.6105 DERIVATION -0.2218
-4.6105 DERIVATIVE -0.2218
-4.6105 DERMATOLOGIST -0.2218
-4.6105 DERMATOLOGY -0.2218
-4.6105 DESALINATION -0.2218
-4.6105 DESALINIZATION -0.2218
-4.6105 DESCENDANT -0.2218
-4.6105 DESCENDANTS -0.2218
-4.6105 DESCENDENT -0.2218
-4.6105 DESCRIPTION -0.2218
-4.6105 DESECRATION -0.2218
-4.6105 DESEGREGATION -0.2218
-4.6105 DESICCATION -0.2218
-4.6105 DESIGNATION -0.2218
-4.6105 DESIRABILITY -0.2218
-4.6105 DESOLATION -0.2218
-4.6105 DESPERADO -0.2218
-4.6105 DESPERATION -0.2218
-4.6105 DESPISING -0.2218
-4.6105 DESPONDENCY -0.2218
-4.6105 DESPOTISM -0.2218
-4.6105 DESTABILIZATION -0.2218
-4.6105 DESTINATION -0.2218
-4.6105 DESTITUTION -0.2218
-4.6105 DESTRUCTION -0.2218
-4.6105 DESTRUCTIVENESS -0.2218
-4.6105 DETACHMENT -0.2218
-4.6105 DETECTING -0.2218
-4.6105 DETECTION -0.2218
-4.6105 DETECTIVE -0.2218
-4.6105 DETENTION -0.2218
-4.6105 DETERGENT -0.2218
-4.6105 DETERIORATION -0.2218
-4.6105 DETERMENT -0.2218
-4.6105 DETERMINANT -0.2218
-4.6105 DETERMINATION -0.2218
-4.6105 DETERMINATIVE -0.2218
-4.6105 DETERMINISM -0.2218
-4.6105 DETERMINIST -0.2218
-4.6105 DETERRENT -0.2218
-4.6105 DETONATION -0.2218
-4.6105 DETONATOR -0.2218
-4.6105 DETOXIFICATION -0.2218
-4.6105 DETRACTOR -0.2218
-4.6105 DETRIMENT -0.2218
-4.6105 DETRITUS -0.2218
-4.6105 DEUTERIUM -0.2218
-4.6105 DEVALUATION -0.2218
-4.6105 DEVASTATION -0.2218
-4.6105 DEVELOPER -0.2218
-4.6105 DEVELOPING -0.2218
-4.6105 DEVELOPMENT -0.2218
-4.6105 DEVIATION -0.2218
-4.6105 DEVILWOOD -0.2218
-4.6105 DEVOLUTION -0.2218
-4.6105 DEVONIAN -0.2218
-4.6105 DEVONSHIRE -0.2218
-4.6105 DEVOTIONAL -0.2218
-4.6105 DEXTERITY -0.2218
-4.6105 DEXTRIN -0.2218
-4.6105 DEXTROSE -0.2218
-4.6105 DIABETES -0.2218
-4.6105 DIABETIC -0.2218
-4.6105 DIACRITIC -0.2218
-4.6105 DIAGNOSING -0.2218
-4.6105 DIAGNOSIS -0.2218
-4.6105 DIAGNOSTICS -0.2218
-4.6105 DIAGONAL -0.2218
-4.6105 DIALECTIC -0.2218
-4.6105 DIALYSIS -0.2218
-4.6105 DIAMAGNETISM -0.2218
-4.6105 DIAMANTE -0.2218
-4.6105 DIASTOLE -0.2218
-4.6105 DIASTROPHISM -0.2218
-4.6105 DICHOTOMY -0.2218
-4.6105 DICHROMATE -0.2218
-4.6105 DICKINSON -0.2218
-4.6105 DICTAPHONE -0.2218
-4.6105 DICTATION -0.2218
-4.6105 DICTATORSHIP -0.2218
-4.6105 DICTIONARY -0.2218
-4.6105 DIETICIAN -0.2218
-4.6105 DIETITIAN -0.2218
-4.6105 DIFFERENTIAL -0.2218
-4.6105 DIFFERENTIATION -0.2218
-4.6105 DIFFICULTY -0.2218
-4.6105 DIFFRACTION -0.2218
-4.6105 DIFFUSION -0.2218
-4.6105 DIGESTION -0.2218
-4.6105 DIGESTIVE -0.2218
-4.6105 DIGITALIS -0.2218
-4.6105 DIGNITARY -0.2218
-4.6105 DIGRESSION -0.2218
-4.6105 DILATATION -0.2218
-4.6105 DILIGENCE -0.2218
-4.6105 DILTIAZEM -0.2218
-4.6105 DIMENSION -0.2218
-4.6105 DIMENSIONALITY -0.2218
-4.6105 DIMINUTION -0.2218
-4.6105 DIMINUTIVE -0.2218
-4.6105 DIMORPHISM -0.2218
-4.6105 DIOCESAN -0.2218
-4.6105 DIONYSIUS -0.2218
-4.6105 DIPHTHERIA -0.2218
-4.6105 DIPLOMACY -0.2218
-4.6105 DIPLOMAT -0.2218
-4.6105 DIRECTNESS -0.2218
-4.6105 DIRECTORATE -0.2218
-4.6105 DIRECTORSHIP -0.2218
-4.6105 DISABILITY -0.2218
-4.6105 DISABLED -0.2218
-4.6105 DISADVANTAGE -0.2218
-4.6105 DISAFFECTION -0.2218
-4.6105 DISAGREEMENT -0.2218
-4.6105 DISAPPEARANCE -0.2218
-4.6105 DISAPPEARING -0.2218
-4.6105 DISAPPOINTMENT -0.2218
-4.6105 DISAPPROVAL -0.2218
-4.6105 DISARMAMENT -0.2218
-4.6105 DISARMING -0.2218
-4.6105 DISBARMENT -0.2218
-4.6105 DISBELIEF -0.2218
-4.6105 DISBURSEMENT -0.2218
-4.6105 DISCERNMENT -0.2218
-4.6105 DISCIPLINARIAN -0.2218
-4.6105 DISCIPLINE -0.2218
-4.6105 DISCLAIMER -0.2218
-4.6105 DISCLOSURE -0.2218
-4.6105 DISCOGRAPHY -0.2218
-4.6105 DISCOLORATION -0.2218
-4.6105 DISCOMFORT -0.2218
-4.6105 DISCONNECT -0.2218
-4.6105 DISCONNECTION -0.2218
-4.6105 DISCONTENT -0.2218
-4.6105 DISCONTENTEDNESS -0.2218
-4.6105 DISCONTINUANCE -0.2218
-4.6105 DISCONTINUATION -0.2218
-4.6105 DISCONTINUITY -0.2218
-4.6105 DISCOTHEQUE -0.2218
-4.6105 DISCOUNTER -0.2218
-4.6105 DISCOURAGEMENT -0.2218
-4.6105 DISCOVERER -0.2218
-4.6105 DISCOVERY -0.2218
-4.6105 DISCREDIT -0.2218
-4.6105 DISCREPANCY -0.2218
-4.6105 DISCRETION -0.2218
-4.6105 DISCRIMINATION -0.2218
-4.6105 DISCUSSION -0.2218
-4.6105 DISEMBARKATION -0.2218
-4.6105 DISENCHANTMENT -0.2218
-4.6105 DISENFRANCHISEMENT -0.2218
-4.6105 DISENGAGEMENT -0.2218
-4.6105 DISEQUILIBRIUM -0.2218
-4.6105 DISESTABLISHMENT -0.2218
-4.6105 DISFIGUREMENT -0.2218
-4.6105 DISGORGEMENT -0.2218
-4.6105 DISGRUNTLEMENT -0.2218
-4.6105 DISHARMONY -0.2218
-4.6105 DISHONESTY -0.2218
-4.6105 DISHWASHING -0.2218
-4.6105 DISILLUSION -0.2218
-4.6105 DISILLUSIONMENT -0.2218
-4.6105 DISINCENTIVE -0.2218
-4.6105 DISINCLINATION -0.2218
-4.6105 DISINFECTANT -0.2218
-4.6105 DISINFECTION -0.2218
-4.6105 DISINFLATION -0.2218
-4.6105 DISINFORMATION -0.2218
-4.6105 DISINGENUOUSNESS -0.2218
-4.6105 DISINTEGRATION -0.2218
-4.6105 DISINTEREST -0.2218
-4.6105 DISINVESTMENT -0.2218
-4.6105 DISLOCATION -0.2218
-4.6105 DISLOYALTY -0.2218
-4.6105 DISMANTLEMENT -0.2218
-4.6105 DISMANTLING -0.2218
-4.6105 DISMEMBERMENT -0.2218
-4.6105 DISMISSAL -0.2218
-4.6105 DISNEYLAND -0.2218
-4.6105 DISOBEDIENCE -0.2218
-4.6105 DISORGANIZATION -0.2218
-4.6105 DISORIENTATION -0.2218
-4.6105 DISPARITY -0.2218
-4.6105 DISPENSARY -0.2218
-4.6105 DISPENSATION -0.2218
-4.6105 DISPENSER -0.2218
-4.6105 DISPERSAL -0.2218
-4.6105 DISPERSION -0.2218
-4.6105 DISPLACEMENT -0.2218
-4.6105 DISPLEASURE -0.2218
-4.6105 DISPOSABLE -0.2218
-4.6105 DISPOSAL -0.2218
-4.6105 DISPOSITION -0.2218
-4.6105 DISPUTATION -0.2218
-4.6105 DISQUALIFICATION -0.2218
-4.6105 DISQUIET -0.2218
-4.6105 DISREGARD -0.2218
-4.6105 DISREPAIR -0.2218
-4.6105 DISREPUTE -0.2218
-4.6105 DISRESPECT -0.2218
-4.6105 DISRUPTION -0.2218
-4.6105 DISSATISFACTION -0.2218
-4.6105 DISSECTION -0.2218
-4.6105 DISSEMBLING -0.2218
-4.6105 DISSEMINATION -0.2218
-4.6105 DISSENSION -0.2218
-4.6105 DISSERTATION -0.2218
-4.6105 DISSIDENCE -0.2218
-4.6105 DISSIDENT -0.2218
-4.6105 DISSIMILARITY -0.2218
-4.6105 DISSIPATION -0.2218
-4.6105 DISSOCIATION -0.2218
-4.6105 DISSOLUTION -0.2218
-4.6105 DISSOLVING -0.2218
-4.6105 DISSONANCE -0.2218
-4.6105 DISSYMMETRY -0.2218
-4.6105 DISTEMPER -0.2218
-4.6105 DISTILLATE -0.2218
-4.6105 DISTILLATION -0.2218
-4.6105 DISTILLERY -0.2218
-4.6105 DISTINCTION -0.2218
-4.6105 DISTINCTIVENESS -0.2218
-4.6105 DISTORTION -0.2218
-4.6105 DISTRACTION -0.2218
-4.6105 DISTRIBUTION -0.2218
-4.6105 DISTRIBUTOR -0.2218
-4.6105 DISTRICT -0.2218
-4.6105 DISTRUST -0.2218
-4.6105 DISTURBANCE -0.2218
-4.6105 DISUNION -0.2218
-4.6105 DISUNITY -0.2218
-4.6105 DIURETIC -0.2218
-4.6105 DIVERGENCE -0.2218
-4.6105 DIVERSIFICATION -0.2218
-4.6105 DIVERSITY -0.2218
-4.6105 DIVERTICULUM -0.2218
-4.6105 DIVERTIMENTO -0.2218
-4.6105 DIVESTITURE -0.2218
-4.6105 DIVIDEND -0.2218
-4.6105 DIVINATION -0.2218
-4.6105 DIVINITY -0.2218
-4.6105 DIXIELAND -0.2218
-4.6105 DOCILITY -0.2218
-4.6105 DOCTRINAIRE -0.2218
-4.6105 DOCUDRAMA -0.2218
-4.6105 DOCUMENT -0.2218
-4.6105 DOCUMENTARY -0.2218
-4.6105 DOCUMENTATION -0.2218
-4.6105 DOGMATISM -0.2218
-4.6105 DOLDRUMS -0.2218
-4.6105 DOMESTIC -0.2218
-4.6105 DOMESTICATION -0.2218
-4.6105 DOMESTICITY -0.2218
-4.6105 DOMINANCE -0.2218
-4.6105 DOMINANT -0.2218
-4.6105 DOMINATION -0.2218
-4.6105 DOMINICA -0.2218
-4.6105 DOMINICAN -0.2218
-4.6105 DOMINION -0.2218
-4.6105 DONIZETTI -0.2218
-4.6105 DORMANCY -0.2218
-4.6105 DORMITORY -0.2218
-4.6105 DORTMUND -0.2218
-4.6105 DOSTOEVSKI -0.2218
-4.6105 DOSTOEVSKY -0.2218
-4.6105 DOUBLESPEAK -0.2218
-4.6105 DOUBLETHINK -0.2218
-4.6105 DOUBLETREE -0.2218
-4.6105 DOWNDRAFT -0.2218
-4.6105 DOWNSIZING -0.2218
-4.6105 DOXOLOGY -0.2218
-4.6105 DRACULA -0.2218
-4.6105 DRAFTSMAN -0.2218
-4.6105 DRAFTSMANSHIP -0.2218
-4.6105 DRAGONHEAD -0.2218
-4.6105 DRAMAMINE -0.2218
-4.6105 DRAMATICS -0.2218
-4.6105 DRAMATIST -0.2218
-4.6105 DRAMATIZATION -0.2218
-4.6105 DRAMATURGY -0.2218
-4.6105 DREAMLAND -0.2218
-4.6105 DREAMWORLD -0.2218
-4.6105 DREARINESS -0.2218
-4.6105 DRESSMAKER -0.2218
-4.6105 DRESSMAKING -0.2218
-4.6105 DRIBBLING -0.2218
-4.6105 DRIFTWOOD -0.2218
-4.6105 DRINKABLE -0.2218
-4.6105 DROMEDARY -0.2218
-4.6105 DROWSINESS -0.2218
-4.6105 DRUGSTORE -0.2218
-4.6105 DRUIDISM -0.2218
-4.6105 DRUMSTICK -0.2218
-4.6105 DRUNKENNESS -0.2218
-4.6105 DUALISM -0.2218
-4.6105 DUBROVNIK -0.2218
-4.6105 DUCTILITY -0.2218
-4.6105 DULCINEA -0.2218
-4.6105 DUMPLINGS -0.2218
-4.6105 DUODENUM -0.2218
-4.6105 DUPLICATE -0.2218
-4.6105 DUPLICATION -0.2218
-4.6105 DUPLICITY -0.2218
-4.6105 DURABILITY -0.2218
-4.6105 DURABLES -0.2218
-4.6105 DUSSELDORF -0.2218
-4.6105 DWARFISM -0.2218
-4.6105 DWINDLING -0.2218
-4.6105 DYNAMICS -0.2218
-4.6105 DYNAMISM -0.2218
-4.6105 DYNAMOMETER -0.2218
-4.6105 DYSENTERY -0.2218
-4.6105 DYSFUNCTION -0.2218
-4.6105 DYSLEXIA -0.2218
-4.6105 DYSLEXIC -0.2218
-4.6105 DYSPEPTIC -0.2218
-4.6105 DYSPLASIA -0.2218
-4.6105 DYSTROPHY -0.2218
-4.6105 EARNESTNESS -0.2218
-4.6105 EBULLIENCE -0.2218
-4.6105 ECCENTRIC -0.2218
-4.6105 ECCENTRICITY -0.2218
-4.6105 ECCLESIASTIC -0.2218
-4.6105 ECHINACEA -0.2218
-4.6105 ECHOGRAPHY -0.2218
-4.6105 ECHOLOCATION -0.2218
-4.6105 ECLECTIC -0.2218
-4.6105 ECLIPTIC -0.2218
-4.6105 ECOLOGIST -0.2218
-4.6105 ECONOMETRICS -0.2218
-4.6105 ECONOMICS -0.2218
-4.6105 ECONOMIST -0.2218
-4.6105 ECOSYSTEM -0.2218
-4.6105 ECUADORAN -0.2218
-4.6105 ECUADORIAN -0.2218
-4.6105 EDIFICATION -0.2218
-4.6105 EDITORIAL -0.2218
-4.6105 EDITORIALIST -0.2218
-4.6105 EDITORSHIP -0.2218
-4.6105 EDMONTON -0.2218
-4.6105 EDUCATION -0.2218
-4.6105 EDWARDIAN -0.2218
-4.6105 EFFECTIVENESS -0.2218
-4.6105 EFFICIENCY -0.2218
-4.6105 EFFRONTERY -0.2218
-4.6105 EGALITARIAN -0.2218
-4.6105 EGALITARIANISM -0.2218
-4.6105 EGLANTINE -0.2218
-4.6105 EGOCENTRIC -0.2218
-4.6105 EGOMANIAC -0.2218
-4.6105 EGOTISM -0.2218
-4.6105 EGYPTOLOGY -0.2218
-4.6105 EIGENVALUE -0.2218
-4.6105 EINDHOVEN -0.2218
-4.6105 EISENSTEIN -0.2218
-4.6105 EJACULATE -0.2218
-4.6105 EJACULATION -0.2218
-4.6105 ELABORATION -0.2218
-4.6105 ELASTICITY -0.2218
-4.6105 ELASTOMER -0.2218
-4.6105 ELECTIONEERING -0.2218
-4.6105 ELECTORATE -0.2218
-4.6105 ELECTRIC -0.2218
-4.6105 ELECTRICIAN -0.2218
-4.6105 ELECTRICITY -0.2218
-4.6105 ELECTRIFICATION -0.2218
-4.6105 ELECTROCARDIOGRAM -0.2218
-4.6105 ELECTROCUTION -0.2218
-4.6105 ELECTRODE -0.2218
-4.6105 ELECTROLYSIS -0.2218
-4.6105 ELECTROLYTIC -0.2218
-4.6105 ELECTROMAGNET -0.2218
-4.6105 ELECTROMAGNETISM -0.2218
-4.6105 ELECTRON -0.2218
-4.6105 ELECTRONICS -0.2218
-4.6105 ELECTROPHORESIS -0.2218
-4.6105 ELECTROPLATE -0.2218
-4.6105 ELECTROSHOCK -0.2218
-4.6105 ELEMENTS -0.2218
-4.6105 ELEPHANTIASIS -0.2218
-4.6105 ELEVATED -0.2218
-4.6105 ELEVATION -0.2218
-4.6105 ELIGIBILITY -0.2218
-4.6105 ELIMINATION -0.2218
-4.6105 ELITISM -0.2218
-4.6105 ELIZABETH -0.2218
-4.6105 ELIZABETHAN -0.2218
-4.6105 ELOCUTION -0.2218
-4.6105 ELONGATION -0.2218
-4.6105 ELOQUENCE -0.2218
-4.6105 ELUSIVENESS -0.2218
-4.6105 EMANATION -0.2218
-4.6105 EMANCIPATION -0.2218
-4.6105 EMBANKMENT -0.2218
-4.6105 EMBARKATION -0.2218
-4.6105 EMBARRASSMENT -0.2218
-4.6105 EMBAYMENT -0.2218
-4.6105 EMBELLISHMENT -0.2218
-4.6105 EMBEZZLEMENT -0.2218
-4.6105 EMBEZZLER -0.2218
-4.6105 EMBODIMENT -0.2218
-4.6105 EMBOLISM -0.2218
-4.6105 EMBRACING -0.2218
-4.6105 EMBROIDERER -0.2218
-4.6105 EMBROIDERY -0.2218
-4.6105 EMBRYOLOGY -0.2218
-4.6105 EMERGENCY -0.2218
-4.6105 EMERITUS -0.2218
-4.6105 EMIGRANT -0.2218
-4.6105 EMIGRATION -0.2218
-4.6105 EMOTICON -0.2218
-4.6105 EMOTIONALISM -0.2218
-4.6105 EMPHASIZING -0.2218
-4.6105 EMPHYSEMA -0.2218
-4.6105 EMPIRICISM -0.2218
-4.6105 EMPIRICIST -0.2218
-4.6105 EMPLACEMENT -0.2218
-4.6105 EMPLOYABLE -0.2218
-4.6105 EMPLOYMENT -0.2218
-4.6105 EMPORIUM -0.2218
-4.6105 EMPOWERMENT -0.2218
-4.6105 EMPTINESS -0.2218
-4.6105 EMULATION -0.2218
-4.6105 EMULSIFIER -0.2218
-4.6105 ENACTMENT -0.2218
-4.6105 ENCAMPMENT -0.2218
-4.6105 ENCEPHALITIS -0.2218
-4.6105 ENCEPHALOPATHY -0.2218
-4.6105 ENCHANTMENT -0.2218
-4.6105 ENCHILADA -0.2218
-4.6105 ENCIRCLEMENT -0.2218
-4.6105 ENCLOSING -0.2218
-4.6105 ENCOURAGEMENT -0.2218
-4.6105 ENCROACHMENT -0.2218
-4.6105 ENCRYPTION -0.2218
-4.6105 ENCYCLICAL -0.2218
-4.6105 ENCYCLOPAEDIA -0.2218
-4.6105 ENCYCLOPEDIA -0.2218
-4.6105 ENCYCLOPEDIST -0.2218
-4.6105 ENDANGERMENT -0.2218
-4.6105 ENDEARMENT -0.2218
-4.6105 ENDOCRINE -0.2218
-4.6105 ENDOCRINOLOGIST -0.2218
-4.6105 ENDOCRINOLOGY -0.2218
-4.6105 ENDOMETRIOSIS -0.2218
-4.6105 ENDORPHIN -0.2218
-4.6105 ENDORSEMENT -0.2218
-4.6105 ENDOSCOPE -0.2218
-4.6105 ENDOSCOPY -0.2218
-4.6105 ENDOSPERM -0.2218
-4.6105 ENDOWMENT -0.2218
-4.6105 ENERGIZING -0.2218
-4.6105 ENFORCEMENT -0.2218
-4.6105 ENGAGEMENT -0.2218
-4.6105 ENGINEERING -0.2218
-4.6105 ENGLISHMAN -0.2218
-4.6105 ENGLISHWOMAN -0.2218
-4.6105 ENGRAVING -0.2218
-4.6105 ENGROSSMENT -0.2218
-4.6105 ENHANCEMENT -0.2218
-4.6105 ENJOYMENT -0.2218
-4.6105 ENLARGEMENT -0.2218
-4.6105 ENLIGHTENED -0.2218
-4.6105 ENLIGHTENMENT -0.2218
-4.6105 ENLISTING -0.2218
-4.6105 ENLISTMENT -0.2218
-4.6105 ENORMITY -0.2218
-4.6105 ENRICHMENT -0.2218
-4.6105 ENROLLMENT -0.2218
-4.6105 ENSEMBLE -0.2218
-4.6105 ENSLAVEMENT -0.2218
-4.6105 ENTANGLEMENT -0.2218
-4.6105 ENTERPRISE -0.2218
-4.6105 ENTERTAINER -0.2218
-4.6105 ENTERTAINMENT -0.2218
-4.6105 ENTHUSIASM -0.2218
-4.6105 ENTHUSIAST -0.2218
-4.6105 ENTICEMENT -0.2218
-4.6105 ENTITLEMENT -0.2218
-4.6105 ENTOMBMENT -0.2218
-4.6105 ENTOMOLOGIST -0.2218
-4.6105 ENTOMOLOGY -0.2218
-4.6105 ENTRAPMENT -0.2218
-4.6105 ENTRENCHMENT -0.2218
-4.6105 ENTREPRENEUR -0.2218
-4.6105 ENUMERATION -0.2218
-4.6105 ENVIRONMENT -0.2218
-4.6105 ENVIRONMENTALISM -0.2218
-4.6105 ENVIRONMENTALIST -0.2218
-4.6105 ENVIRONS -0.2218
-4.6105 ENVISIONING -0.2218
-4.6105 EOSINOPHILIA -0.2218
-4.6105 EPICENTER -0.2218
-4.6105 EPICUREAN -0.2218
-4.6105 EPIDEMIC -0.2218
-4.6105 EPIDEMIOLOGIST -0.2218
-4.6105 EPIDEMIOLOGY -0.2218
-4.6105 EPIDERMIS -0.2218
-4.6105 EPILEPSY -0.2218
-4.6105 EPILEPTIC -0.2218
-4.6105 EPISCOPALIAN -0.2218
-4.6105 EPISTEMOLOGY -0.2218
-4.6105 EQUALITY -0.2218
-4.6105 EQUALIZATION -0.2218
-4.6105 EQUALIZER -0.2218
-4.6105 EQUANIMITY -0.2218
-4.6105 EQUATORIAL -0.2218
-4.6105 EQUESTRIAN -0.2218
-4.6105 EQUILIBRIUM -0.2218
-4.6105 EQUINOX -0.2218
-4.6105 EQUIPMENT -0.2218
-4.6105 EQUITATION -0.2218
-4.6105 EQUIVALENCE -0.2218
-4.6105 EQUIVALENT -0.2218
-4.6105 EQUIVOCATION -0.2218
-4.6105 ERADICATION -0.2218
-4.6105 ERGONOMICS -0.2218
-4.6105 ERGOTISM -0.2218
-4.6105 ERITREAN -0.2218
-4.6105 EROTICISM -0.2218
-4.6105 ERUDITION -0.2218
-4.6105 ERYTHROPOIETIN -0.2218
-4.6105 ESCALATION -0.2218
-4.6105 ESCALATOR -0.2218
-4.6105 ESCAPEMENT -0.2218
-4.6105 ESCAPISM -0.2218
-4.6105 ESCARPMENT -0.2218
-4.6105 ESOPHAGUS -0.2218
-4.6105 ESPERANTO -0.2218
-4.6105 ESPIONAGE -0.2218
-4.6105 ESPLANADE -0.2218
-4.6105 ESTABLISHMENT -0.2218
-4.6105 ESTHETICS -0.2218
-4.6105 ESTIMATION -0.2218
-4.6105 ESTIMATOR -0.2218
-4.6105 ESTONIAN -0.2218
-4.6105 ESTRANGEMENT -0.2218
-4.6105 ESTROGEN -0.2218
-4.6105 ETHIOPIAN -0.2218
-4.6105 ETHNICITY -0.2218
-4.6105 ETHNOCENTRISM -0.2218
-4.6105 ETHNOLOGY -0.2218
-4.6105 ETIOLOGY -0.2218
-4.6105 ETRUSCAN -0.2218
-4.6105 ETYMOLOGY -0.2218
-4.6105 EUCALYPTUS -0.2218
-4.6105 EUGENICS -0.2218
-4.6105 EUPHEMISM -0.2218
-4.6105 EUPHRATES -0.2218
-4.6105 EURODOLLAR -0.2218
-4.6105 EUROPEAN -0.2218
-4.6105 EUROPIUM -0.2218
-4.6105 EUTHANASIA -0.2218
-4.6105 EVACUATION -0.2218
-4.6105 EVALUATION -0.2218
-4.6105 EVANESCENCE -0.2218
-4.6105 EVANGELISM -0.2218
-4.6105 EVANGELIST -0.2218
-4.6105 EVANSVILLE -0.2218
-4.6105 EVAPORATION -0.2218
-4.6105 EVENTUALITY -0.2218
-4.6105 EVERGLADES -0.2218
-4.6105 EVERLASTING -0.2218
-4.6105 EVOCATION -0.2218
-4.6105 EVOLUTION -0.2218
-4.6105 EX-BOYFRIEND -0.2218
-4.6105 EX-HUSBAND -0.2218
-4.6105 EXACERBATION -0.2218
-4.6105 EXACTION -0.2218
-4.6105 EXACTITUDE -0.2218
-4.6105 EXAGGERATION -0.2218
-4.6105 EXAMINATION -0.2218
-4.6105 EXAMINER -0.2218
-4.6105 EXAMPLE -0.2218
-4.6105 EXASPERATION -0.2218
-4.6105 EXCALIBUR -0.2218
-4.6105 EXCAVATION -0.2218
-4.6105 EXCAVATOR -0.2218
-4.6105 EXCELLENCE -0.2218
-4.6105 EXCELLENCY -0.2218
-4.6105 EXCELSIOR -0.2218
-4.6105 EXCEPTION -0.2218
-4.6105 EXCHANGER -0.2218
-4.6105 EXCITATION -0.2218
-4.6105 EXCITEMENT -0.2218
-4.6105 EXCLAIMING -0.2218
-4.6105 EXCLAMATION -0.2218
-4.6105 EXCLUSION -0.2218
-4.6105 EXCLUSIVE -0.2218
-4.6105 EXCOMMUNICATION -0.2218
-4.6105 EXCORIATION -0.2218
-4.6105 EXCREMENT -0.2218
-4.6105 EXCRETION -0.2218
-4.6105 EXCURSION -0.2218
-4.6105 EXECUTING -0.2218
-4.6105 EXECUTION -0.2218
-4.6105 EXECUTIONER -0.2218
-4.6105 EXECUTIVE -0.2218
-4.6105 EXECUTOR -0.2218
-4.6105 EXEMPLAR -0.2218
-4.6105 EXEMPTION -0.2218
-4.6105 EXERCISER -0.2218
-4.6105 EXERCISING -0.2218
-4.6105 EXFOLIATION -0.2218
-4.6105 EXHALATION -0.2218
-4.6105 EXHAUSTION -0.2218
-4.6105 EXHIBITION -0.2218
-4.6105 EXHIBITIONIST -0.2218
-4.6105 EXHIBITOR -0.2218
-4.6105 EXHILARATION -0.2218
-4.6105 EXHORTATION -0.2218
-4.6105 EXHUMATION -0.2218
-4.6105 EXIGENCY -0.2218
-4.6105 EXISTENCE -0.2218
-4.6105 EXONERATION -0.2218
-4.6105 EXORCISM -0.2218
-4.6105 EXORCIST -0.2218
-4.6105 EXOSKELETON -0.2218
-4.6105 EXPANSION -0.2218
-4.6105 EXPANSIONISM -0.2218
-4.6105 EXPATRIATE -0.2218
-4.6105 EXPATRIATION -0.2218
-4.6105 EXPECTANCY -0.2218
-4.6105 EXPECTATION -0.2218
-4.6105 EXPECTORANT -0.2218
-4.6105 EXPEDIENCE -0.2218
-4.6105 EXPEDIENCY -0.2218
-4.6105 EXPEDIENT -0.2218
-4.6105 EXPEDITION -0.2218
-4.6105 EXPELLING -0.2218
-4.6105 EXPENDING -0.2218
-4.6105 EXPENDITURE -0.2218
-4.6105 EXPERIENCE -0.2218
-4.6105 EXPERIMENT -0.2218
-4.6105 EXPERIMENTATION -0.2218
-4.6105 EXPERIMENTER -0.2218
-4.6105 EXPERTISE -0.2218
-4.6105 EXPIRATION -0.2218
-4.6105 EXPLANATION -0.2218
-4.6105 EXPLETIVE -0.2218
-4.6105 EXPLICATION -0.2218
-4.6105 EXPLOITATION -0.2218
-4.6105 EXPLORATION -0.2218
-4.6105 EXPLORER -0.2218
-4.6105 EXPLOSION -0.2218
-4.6105 EXPLOSIVE -0.2218
-4.6105 EXPONENT -0.2218
-4.6105 EXPONENTIAL -0.2218
-4.6105 EXPORTER -0.2218
-4.6105 EXPORTING -0.2218
-4.6105 EXPOSITION -0.2218
-4.6105 EXPOUNDING -0.2218
-4.6105 EXPRESSION -0.2218
-4.6105 EXPRESSIONISM -0.2218
-4.6105 EXPRESSIONIST -0.2218
-4.6105 EXPRESSWAY -0.2218
-4.6105 EXPROPRIATION -0.2218
-4.6105 EXPULSION -0.2218
-4.6105 EXTENSION -0.2218
-4.6105 EXTERIOR -0.2218
-4.6105 EXTERMINATION -0.2218
-4.6105 EXTERMINATOR -0.2218
-4.6105 EXTERNAL -0.2218
-4.6105 EXTINCTION -0.2218
-4.6105 EXTINGUISHER -0.2218
-4.6105 EXTINGUISHING -0.2218
-4.6105 EXTORTION -0.2218
-4.6105 EXTORTIONIST -0.2218
-4.6105 EXTRACT -0.2218
-4.6105 EXTRACTION -0.2218
-4.6105 EXTRADITION -0.2218
-4.6105 EXTRAPOLATION -0.2218
-4.6105 EXTRATERRESTRIAL -0.2218
-4.6105 EXTRAVAGANCE -0.2218
-4.6105 EXTRAVAGANZA -0.2218
-4.6105 EXTREMISM -0.2218
-4.6105 EXTREMIST -0.2218
-4.6105 EXTREMITY -0.2218
-4.6105 EXTRICATION -0.2218
-4.6105 EXTROVERT -0.2218
-4.6105 EXTRUSION -0.2218
-4.6105 EXUBERANCE -0.2218
-4.6105 FABRICATION -0.2218
-4.6105 FABRICATOR -0.2218
-4.6105 FACILITATION -0.2218
-4.6105 FACILITATOR -0.2218
-4.6105 FACILITY -0.2218
-4.6105 FACSIMILE -0.2218
-4.6105 FAHRENHEIT -0.2218
-4.6105 FAIRBANKS -0.2218
-4.6105 FAIRGROUND -0.2218
-4.6105 FAIRYLAND -0.2218
-4.6105 FAITHFULNESS -0.2218
-4.6105 FALCONRY -0.2218
-4.6105 FALLIBILITY -0.2218
-4.6105 FALSIFICATION -0.2218
-4.6105 FALSIFYING -0.2218
-4.6105 FAMILIARITY -0.2218
-4.6105 FANATICISM -0.2218
-4.6105 FANDANGO -0.2218
-4.6105 FARMHAND -0.2218
-4.6105 FARMINGTON -0.2218
-4.6105 FARMLAND -0.2218
-4.6105 FARMSTEAD -0.2218
-4.6105 FARMYARD -0.2218
-4.6105 FARSIGHTEDNESS -0.2218
-4.6105 FARTHINGALE -0.2218
-4.6105 FASCINATION -0.2218
-4.6105 FATALISM -0.2218
-4.6105 FATALIST -0.2218
-4.6105 FATALITY -0.2218
-4.6105 FATHER-IN-LAW -0.2218
-4.6105 FATHERLAND -0.2218
-4.6105 FAVORITISM -0.2218
-4.6105 FEASIBILITY -0.2218
-4.6105 FEATHERBEDDING -0.2218
-4.6105 FEB -0.2218
-4.6105 FEBRUARY -0.2218
-4.6105 FECUNDITY -0.2218
-4.6105 FEDERALISM -0.2218
-4.6105 FEDERALIST -0.2218
-4.6105 FEDERATION -0.2218
-4.6105 FELDSPAR -0.2218
-4.6105 FELICITY -0.2218
-4.6105 FEMININITY -0.2218
-4.6105 FEMINISM -0.2218
-4.6105 FEMINIST -0.2218
-4.6105 FENUGREEK -0.2218
-4.6105 FERDINAND -0.2218
-4.6105 FERMENTATION -0.2218
-4.6105 FERMENTING -0.2218
-4.6105 FERROMAGNETISM -0.2218
-4.6105 FERTILITY -0.2218
-4.6105 FERTILIZATION -0.2218
-4.6105 FERTILIZER -0.2218
-4.6105 FESTIVAL -0.2218
-4.6105 FESTIVITY -0.2218
-4.6105 FETISHISM -0.2218
-4.6105 FETISHIST -0.2218
-4.6105 FETTUCCINE -0.2218
-4.6105 FEUDALISM -0.2218
-4.6105 FIBERBOARD -0.2218
-4.6105 FIBERGLASS -0.2218
-4.6105 FIBREBOARD -0.2218
-4.6105 FIBRILLATION -0.2218
-4.6105 FIBROSIS -0.2218
-4.6105 FICKLENESS -0.2218
-4.6105 FIDELITY -0.2218
-4.6105 FIDUCIARY -0.2218
-4.6105 FIGURATION -0.2218
-4.6105 FIGUREHEAD -0.2218
-4.6105 FILAMENT -0.2218
-4.6105 FILIBUSTER -0.2218
-4.6105 FILIPINO -0.2218
-4.6105 FILTRATION -0.2218
-4.6105 FINALIST -0.2218
-4.6105 FINALITY -0.2218
-4.6105 FINANCES -0.2218
-4.6105 FINANCIER -0.2218
-4.6105 FINANCING -0.2218
-4.6105 FINGERBOARD -0.2218
-4.6105 FINGERNAIL -0.2218
-4.6105 FINGERPAINT -0.2218
-4.6105 FINGERPOINTING -0.2218
-4.6105 FINGERPRINT -0.2218
-4.6105 FINGERPRINTING -0.2218
-4.6105 FINGERTIP -0.2218
-4.6105 FIREBRAND -0.2218
-4.6105 FIRECRACKER -0.2218
-4.6105 FIRESTORM -0.2218
-4.6105 FIRSTBORN -0.2218
-4.6105 FISHMONGER -0.2218
-4.6105 FISTICUFFS -0.2218
-4.6105 FITZGERALD -0.2218
-4.6105 FIXATION -0.2218
-4.6105 FIXATIVE -0.2218
-4.6105 FLAGELLATE -0.2218
-4.6105 FLAGELLUM -0.2218
-4.6105 FLAGEOLET -0.2218
-4.6105 FLAGSTAFF -0.2218
-4.6105 FLAGSTONE -0.2218
-4.6105 FLAMBOYANCE -0.2218
-4.6105 FLAMBOYANT -0.2218
-4.6105 FLAMENCO -0.2218
-4.6105 FLAMINGO -0.2218
-4.6105 FLAMMABILITY -0.2218
-4.6105 FLASHBULB -0.2218
-4.6105 FLASHCARD -0.2218
-4.6105 FLASHPOINT -0.2218
-4.6105 FLEXIBILITY -0.2218
-4.6105 FLIMFLAM -0.2218
-4.6105 FLINTLOCK -0.2218
-4.6105 FLINTSTONE -0.2218
-4.6105 FLIRTATION -0.2218
-4.6105 FLOODPLAIN -0.2218
-4.6105 FLOORBOARD -0.2218
-4.6105 FLORENTINE -0.2218
-4.6105 FLORIDIAN -0.2218
-4.6105 FLOTATION -0.2218
-4.6105 FLUCTUATION -0.2218
-4.6105 FLUIDITY -0.2218
-4.6105 FLUORESCENCE -0.2218
-4.6105 FLUORESCENT -0.2218
-4.6105 FLUORIDATION -0.2218
-4.6105 FLUOROCARBON -0.2218
-4.6105 FLUOROSCOPY -0.2218
-4.6105 FLUORSPAR -0.2218
-4.6105 FOLIATION -0.2218
-4.6105 FONDLING -0.2218
-4.6105 FOOLISHNESS -0.2218
-4.6105 FOOTPRINT -0.2218
-4.6105 FORBEARANCE -0.2218
-4.6105 FORCEFULNESS -0.2218
-4.6105 FOREBODING -0.2218
-4.6105 FORECASTER -0.2218
-4.6105 FORECASTING -0.2218
-4.6105 FORECLOSURE -0.2218
-4.6105 FOREFINGER -0.2218
-4.6105 FOREFRONT -0.2218
-4.6105 FOREGROUND -0.2218
-4.6105 FORENSICS -0.2218
-4.6105 FOREPERSON -0.2218
-4.6105 FORESHADOWING -0.2218
-4.6105 FORESTALLING -0.2218
-4.6105 FORESTRY -0.2218
-4.6105 FORETELLING -0.2218
-4.6105 FOREWARNING -0.2218
-4.6105 FOREWOMAN -0.2218
-4.6105 FORGIVENESS -0.2218
-4.6105 FORKLIFT -0.2218
-4.6105 FORMALDEHYDE -0.2218
-4.6105 FORMALISM -0.2218
-4.6105 FORMALITIES -0.2218
-4.6105 FORMALITY -0.2218
-4.6105 FORMALIZATION -0.2218
-4.6105 FORMATION -0.2218
-4.6105 FORMATIVE -0.2218
-4.6105 FORMULA -0.2218
-4.6105 FORMULARY -0.2218
-4.6105 FORMULATION -0.2218
-4.6105 FORSAKING -0.2218
-4.6105 FORSYTHIA -0.2218
-4.6105 FORTHRIGHTNESS -0.2218
-4.6105 FORTIFICATION -0.2218
-4.6105 FORTITUDE -0.2218
-4.6105 FORTY-FIVE -0.2218
-4.6105 FORWARDING -0.2218
-4.6105 FOSAMAX -0.2218
-4.6105 FOUNDATION -0.2218
-4.6105 FOURSQUARE -0.2218
-4.6105 FOXGLOVE -0.2218
-4.6105 FOXHOUND -0.2218
-4.6105 FOXTROT -0.2218
-4.6105 FRACTIOUSNESS -0.2218
-4.6105 FRAGILITY -0.2218
-4.6105 FRAGMENT -0.2218
-4.6105 FRAGMENTATION -0.2218
-4.6105 FRAGONARD -0.2218
-4.6105 FRAGRANCE -0.2218
-4.6105 FRANCISCAN -0.2218
-4.6105 FRANCOPHILE -0.2218
-4.6105 FRANKENSTEIN -0.2218
-4.6105 FRANKFORT -0.2218
-4.6105 FRANKFURT -0.2218
-4.6105 FRANKFURTER -0.2218
-4.6105 FRANKINCENSE -0.2218
-4.6105 FRANKLIN -0.2218
-4.6105 FRANKNESS -0.2218
-4.6105 FRATERNITY -0.2218
-4.6105 FRATRICIDE -0.2218
-4.6105 FREDERICKSBURG -0.2218
-4.6105 FREE-FOR-ALL -0.2218
-4.6105 FREEHOLDER -0.2218
-4.6105 FREELANCER -0.2218
-4.6105 FREEMASON -0.2218
-4.6105 FREEMASONRY -0.2218
-4.6105 FREETHINKER -0.2218
-4.6105 FRENCHMAN -0.2218
-4.6105 FREQUENCY -0.2218
-4.6105 FRESHWATER -0.2218
-4.6105 FRIENDLINESS -0.2218
-4.6105 FRIENDSHIP -0.2218
-4.6105 FRIGHTENING -0.2218
-4.6105 FRIVOLITY -0.2218
-4.6105 FROSTBITE -0.2218
-4.6105 FROTHINESS -0.2218
-4.6105 FRUGALITY -0.2218
-4.6105 FRUSTRATION -0.2218
-4.6105 FUGITIVE -0.2218
-4.6105 FUJIYAMA -0.2218
-4.6105 FULFILLMENT -0.2218
-4.6105 FULMINATE -0.2218
-4.6105 FUMIGATION -0.2218
-4.6105 FUNCTIONALITY -0.2218
-4.6105 FUNCTIONARY -0.2218
-4.6105 FUNCTIONING -0.2218
-4.6105 FUNDAMENTAL -0.2218
-4.6105 FUNDAMENTALISM -0.2218
-4.6105 FUNDAMENTALIST -0.2218
-4.6105 FUNDAMENTALS -0.2218
-4.6105 FUNDRAISER -0.2218
-4.6105 FUNGIBLE -0.2218
-4.6105 FUNGICIDE -0.2218
-4.6105 FUSELAGE -0.2218
-4.6105 FUSILLADE -0.2218
-4.6105 FUTILITY -0.2218
-4.6105 FUTURISM -0.2218
-4.6105 FUTURIST -0.2218
-4.6105 GALACTOSE -0.2218
-4.6105 GALAPAGOS -0.2218
-4.6105 GALILEAN -0.2218
-4.6105 GALLANTRY -0.2218
-4.6105 GALLBLADDER -0.2218
-4.6105 GALSWORTHY -0.2218
-4.6105 GALVESTON -0.2218
-4.6105 GAMBLING -0.2218
-4.6105 GAMESMANSHIP -0.2218
-4.6105 GAMETOPHYTE -0.2218
-4.6105 GANGPLANK -0.2218
-4.6105 GARDENIA -0.2218
-4.6105 GARDENING -0.2218
-4.6105 GARIBALDI -0.2218
-4.6105 GARNISHMENT -0.2218
-4.6105 GASIFICATION -0.2218
-4.6105 GASTRITIS -0.2218
-4.6105 GASTRONOMY -0.2218
-4.6105 GASTROSCOPE -0.2218
-4.6105 GASTRULATION -0.2218
-4.6105 GEMFIBROZIL -0.2218
-4.6105 GENEALOGY -0.2218
-4.6105 GENERALISSIMO -0.2218
-4.6105 GENERALIST -0.2218
-4.6105 GENERALITY -0.2218
-4.6105 GENERALIZATION -0.2218
-4.6105 GENERALSHIP -0.2218
-4.6105 GENERATION -0.2218
-4.6105 GENEROSITY -0.2218
-4.6105 GENETICIST -0.2218
-4.6105 GENETICS -0.2218
-4.6105 GENIALITY -0.2218
-4.6105 GENITALIA -0.2218
-4.6105 GENITALS -0.2218
-4.6105 GENOMICS -0.2218
-4.6105 GENTILITY -0.2218
-4.6105 GENTLEMAN -0.2218
-4.6105 GENTLENESS -0.2218
-4.6105 GENTLEWOMAN -0.2218
-4.6105 GENTRIFICATION -0.2218
-4.6105 GENUINENESS -0.2218
-4.6105 GEOCHEMISTRY -0.2218
-4.6105 GEODESIC -0.2218
-4.6105 GEOGRAPHER -0.2218
-4.6105 GEOGRAPHY -0.2218
-4.6105 GEOLOGIST -0.2218
-4.6105 GEOMETRY -0.2218
-4.6105 GEOMORPHOLOGY -0.2218
-4.6105 GEOPOLITICS -0.2218
-4.6105 GEOTROPISM -0.2218
-4.6105 GERIATRICIAN -0.2218
-4.6105 GERIATRICS -0.2218
-4.6105 GERMINATION -0.2218
-4.6105 GERONIMO -0.2218
-4.6105 GERONTOLOGIST -0.2218
-4.6105 GERONTOLOGY -0.2218
-4.6105 GERRYMANDER -0.2218
-4.6105 GESTATION -0.2218
-4.6105 GETTYSBURG -0.2218
-4.6105 GHASTLINESS -0.2218
-4.6105 GIACOMETTI -0.2218
-4.6105 GIBRALTAR -0.2218
-4.6105 GINGERBREAD -0.2218
-4.6105 GIRLFRIEND -0.2218
-4.6105 GLACIATION -0.2218
-4.6105 GLADIATOR -0.2218
-4.6105 GLADIOLUS -0.2218
-4.6105 GLADSTONE -0.2218
-4.6105 GLASNOST -0.2218
-4.6105 GLASSBLOWER -0.2218
-4.6105 GLASSMAKER -0.2218
-4.6105 GLENGARRY -0.2218
-4.6105 GLOBALIZATION -0.2218
-4.6105 GLOBETROTTER -0.2218
-4.6105 GLOBULIN -0.2218
-4.6105 GLOCKENSPIEL -0.2218
-4.6105 GLORIFICATION -0.2218
-4.6105 GLUCOSAMINE -0.2218
-4.6105 GLUCOSIDE -0.2218
-4.6105 GLUTAMATE -0.2218
-4.6105 GLYCOGEN -0.2218
-4.6105 GLYCOSIDE -0.2218
-4.6105 GNOSTICISM -0.2218
-4.6105 GOBBLEDYGOOK -0.2218
-4.6105 GOLCONDA -0.2218
-4.6105 GOLDCREST -0.2218
-4.6105 GOLDENROD -0.2218
-4.6105 GOLDFIELD -0.2218
-4.6105 GOLDFIELDS -0.2218
-4.6105 GOLDFINCH -0.2218
-4.6105 GOLDILOCKS -0.2218
-4.6105 GOLDMARK -0.2218
-4.6105 GOLDSMITH -0.2218
-4.6105 GOLDSTONE -0.2218
-4.6105 GONDOLIER -0.2218
-4.6105 GONDWANALAND -0.2218
-4.6105 GONIOMETER -0.2218
-4.6105 GORBACHEV -0.2218
-4.6105 GORGONIAN -0.2218
-4.6105 GOTHENBURG -0.2218
-4.6105 GOTTERDAMMERUNG -0.2218
-4.6105 GOVERNANCE -0.2218
-4.6105 GOVERNMENT -0.2218
-4.6105 GOVERNORSHIP -0.2218
-4.6105 GRACIOUSNESS -0.2218
-4.6105 GRADATION -0.2218
-4.6105 GRADIENT -0.2218
-4.6105 GRADUATE -0.2218
-4.6105 GRADUATION -0.2218
-4.6105 GRANDCHILD -0.2218
-4.6105 GRANDDADDY -0.2218
-4.6105 GRANDDAUGHTER -0.2218
-4.6105 GRANDFATHER -0.2218
-4.6105 GRANDMASTER -0.2218
-4.6105 GRANDMOTHER -0.2218
-4.6105 GRANDNEPHEW -0.2218
-4.6105 GRANDPARENT -0.2218
-4.6105 GRANDSON -0.2218
-4.6105 GRANDSTAND -0.2218
-4.6105 GRANDUNCLE -0.2218
-4.6105 GRANULATION -0.2218
-4.6105 GRANULOCYTE -0.2218
-4.6105 GRAPEFRUIT -0.2218
-4.6105 GRAPHOLOGY -0.2218
-4.6105 GRASSHOPPER -0.2218
-4.6105 GRASSLAND -0.2218
-4.6105 GRATIFICATION -0.2218
-4.6105 GRATITUDE -0.2218
-4.6105 GRATUITY -0.2218
-4.6105 GRAVESTONE -0.2218
-4.6105 GRAVEYARD -0.2218
-4.6105 GRAVIMETER -0.2218
-4.6105 GRAVITAS -0.2218
-4.6105 GRAVITATION -0.2218
-4.6105 GREENBELT -0.2218
-4.6105 GREENLAND -0.2218
-4.6105 GREENSBORO -0.2218
-4.6105 GRENOBLE -0.2218
-4.6105 GRINDSTONE -0.2218
-4.6105 GROUNDBREAKING -0.2218
-4.6105 GROUNDHOG -0.2218
-4.6105 GROUNDLING -0.2218
-4.6105 GROUNDNUT -0.2218
-4.6105 GROUNDSKEEPER -0.2218
-4.6105 GROUNDWORK -0.2218
-4.6105 GRUMBLING -0.2218
-4.6105 GUACAMOLE -0.2218
-4.6105 GUADALAJARA -0.2218
-4.6105 GUADALCANAL -0.2218
-4.6105 GUADELOUPE -0.2218
-4.6105 GUANTANAMO -0.2218
-4.6105 GUARANTOR -0.2218
-4.6105 GUARDIANSHIP -0.2218
-4.6105 GUARDSMAN -0.2218
-4.6105 GUATEMALA -0.2218
-4.6105 GUATEMALAN -0.2218
-4.6105 GUESSTIMATE -0.2218
-4.6105 GUGGENHEIM -0.2218
-4.6105 GUITARIST -0.2218
-4.6105 GULLIBILITY -0.2218
-4.6105 GUMBO-LIMBO -0.2218
-4.6105 GUNCOTTON -0.2218
-4.6105 GUNFLINT -0.2218
-4.6105 GUNSLINGER -0.2218
-4.6105 GUSTAVUS -0.2218
-4.6105 GUTENBERG -0.2218
-4.6105 GYMNASIUM -0.2218
-4.6105 GYMNASTICS -0.2218
-4.6105 GYNECOLOGIST -0.2218
-4.6105 GYNECOLOGY -0.2218
-4.6105 GYROCOMPASS -0.2218
-4.6105 GYROSCOPE -0.2218
-4.6105 HABERDASHERY -0.2218
-4.6105 HABITATION -0.2218
-4.6105 HACIENDA -0.2218
-4.6105 HACKMATACK -0.2218
-4.6105 HAGERSTOWN -0.2218
-4.6105 HAGIOGRAPHY -0.2218
-4.6105 HAILSTORM -0.2218
-4.6105 HAIRDRESSER -0.2218
-4.6105 HAIRDRESSING -0.2218
-4.6105 HALIFAX -0.2218
-4.6105 HALLELUJAH -0.2218
-4.6105 HALLUCINATION -0.2218
-4.6105 HAMILTON -0.2218
-4.6105 HAMMERSTEIN -0.2218
-4.6105 HAMSTRING -0.2218
-4.6105 HANDCLASP -0.2218
-4.6105 HANDCRAFT -0.2218
-4.6105 HANDEDNESS -0.2218
-4.6105 HANDHOLD -0.2218
-4.6105 HANDICAP -0.2218
-4.6105 HANDICAPPED -0.2218
-4.6105 HANDICAPPER -0.2218
-4.6105 HANDICRAFT -0.2218
-4.6105 HANDIWORK -0.2218
-4.6105 HANDKERCHIEF -0.2218
-4.6105 HANDLEBAR -0.2218
-4.6105 HANDSHAKING -0.2218
-4.6105 HANDSTAND -0.2218
-4.6105 HANDWRITING -0.2218
-4.6105 HANDYMAN -0.2218
-4.6105 HANOVERIAN -0.2218
-4.6105 HAPPENSTANCE -0.2218
-4.6105 HARA-KIRI -0.2218
-4.6105 HARASSMENT -0.2218
-4.6105 HARBINGER -0.2218
-4.6105 HARDBOARD -0.2218
-4.6105 HARDCOVER -0.2218
-4.6105 HARDENING -0.2218
-4.6105 HARDLINER -0.2218
-4.6105 HARGREAVES -0.2218
-4.6105 HARLEQUIN -0.2218
-4.6105 HARMATTAN -0.2218
-4.6105 HARMFULNESS -0.2218
-4.6105 HARMONIC -0.2218
-4.6105 HARMONICA -0.2218
-4.6105 HARMONICS -0.2218
-4.6105 HARMONIUM -0.2218
-4.6105 HARMONIZATION -0.2218
-4.6105 HARPSICHORD -0.2218
-4.6105 HARQUEBUS -0.2218
-4.6105 HARRISBURG -0.2218
-4.6105 HARVESTER -0.2218
-4.6105 HARVESTING -0.2218
-4.6105 HAZELNUT -0.2218
-4.6105 HAZELWOOD -0.2218
-4.6105 HEADHUNTER -0.2218
-4.6105 HEADMASTER -0.2218
-4.6105 HEADMISTRESS -0.2218
-4.6105 HEADQUARTERS -0.2218
-4.6105 HEALTHINESS -0.2218
-4.6105 HEARTBREAK -0.2218
-4.6105 HEARTLAND -0.2218
-4.6105 HEARTTHROB -0.2218
-4.6105 HEBRIDES -0.2218
-4.6105 HECTOGRAPH -0.2218
-4.6105 HEDONISM -0.2218
-4.6105 HEGELIAN -0.2218
-4.6105 HEGEMONY -0.2218
-4.6105 HELICOPTER -0.2218
-4.6105 HELIOTROPE -0.2218
-4.6105 HELLENISM -0.2218
-4.6105 HELMSMAN -0.2218
-4.6105 HELPLESSNESS -0.2218
-4.6105 HELSINKI -0.2218
-4.6105 HELVETICA -0.2218
-4.6105 HEMATOLOGY -0.2218
-4.6105 HEMIMORPHITE -0.2218
-4.6105 HEMIPLEGIA -0.2218
-4.6105 HEMISPHERE -0.2218
-4.6105 HEMODYNAMICS -0.2218
-4.6105 HEMOGLOBIN -0.2218
-4.6105 HEMOPHILIA -0.2218
-4.6105 HEMOPHILIAC -0.2218
-4.6105 HENDRIX -0.2218
-4.6105 HEPATITIS -0.2218
-4.6105 HERALDRY -0.2218
-4.6105 HERBARIUM -0.2218
-4.6105 HERCULES -0.2218
-4.6105 HERMAPHRODITE -0.2218
-4.6105 HERMOSILLO -0.2218
-4.6105 HEROISM -0.2218
-4.6105 HESITANCY -0.2218
-4.6105 HESITATION -0.2218
-4.6105 HETERODOXY -0.2218
-4.6105 HETEROGENEITY -0.2218
-4.6105 HETEROSEXUAL -0.2218
-4.6105 HETEROSEXUALITY -0.2218
-4.6105 HETEROSIS -0.2218
-4.6105 HEURISTIC -0.2218
-4.6105 HEXACHLOROPHENE -0.2218
-4.6105 HEXAGON -0.2218
-4.6105 HIBERNATION -0.2218
-4.6105 HIEROGLYPH -0.2218
-4.6105 HIEROGLYPHIC -0.2218
-4.6105 HIGGINSON -0.2218
-4.6105 HIGH-SPIRITEDNESS -0.2218
-4.6105 HILARITY -0.2218
-4.6105 HILDEBRAND -0.2218
-4.6105 HIMALAYAS -0.2218
-4.6105 HINDQUARTER -0.2218
-4.6105 HINDQUARTERS -0.2218
-4.6105 HINDRANCE -0.2218
-4.6105 HINDUISM -0.2218
-4.6105 HINDUSTAN -0.2218
-4.6105 HINTERLAND -0.2218
-4.6105 HIPPOCAMPUS -0.2218
-4.6105 HIPPOCRATES -0.2218
-4.6105 HIPPODROME -0.2218
-4.6105 HIPPOPOTAMUS -0.2218
-4.6105 HIROHITO -0.2218
-4.6105 HIROSHIMA -0.2218
-4.6105 HISPANIC -0.2218
-4.6105 HISPANIOLA -0.2218
-4.6105 HISTAMINE -0.2218
-4.6105 HISTIDINE -0.2218
-4.6105 HISTOGRAM -0.2218
-4.6105 HISTOLOGY -0.2218
-4.6105 HISTORIAN -0.2218
-4.6105 HISTORIOGRAPHY -0.2218
-4.6105 HISTRIONICS -0.2218
-4.6105 HOLOCAUST -0.2218
-4.6105 HOLOGRAM -0.2218
-4.6105 HOMEBUILDER -0.2218
-4.6105 HOMECOMING -0.2218
-4.6105 HOMELESSNESS -0.2218
-4.6105 HOMEMAKING -0.2218
-4.6105 HOMEOPATHY -0.2218
-4.6105 HOMEOSTASIS -0.2218
-4.6105 HOMESICKNESS -0.2218
-4.6105 HOMESTEADER -0.2218
-4.6105 HOMESTRETCH -0.2218
-4.6105 HOMOGENEITY -0.2218
-4.6105 HOMOGENIZATION -0.2218
-4.6105 HOMOGENY -0.2218
-4.6105 HOMOPHOBIA -0.2218
-4.6105 HOMOSEXUAL -0.2218
-4.6105 HOMOSEXUALITY -0.2218
-4.6105 HOMOZYGOTE -0.2218
-4.6105 HONDURAN -0.2218
-4.6105 HONDURAS -0.2218
-4.6105 HONEYMOONER -0.2218
-4.6105 HONEYSUCKLE -0.2218
-4.6105 HONOLULU -0.2218
-4.6105 HONORARIUM -0.2218
-4.6105 HOOLIGANISM -0.2218
-4.6105 HOPEFULNESS -0.2218
-4.6105 HOPELESSNESS -0.2218
-4.6105 HOPKINSON -0.2218
-4.6105 HORIZONTAL -0.2218
-4.6105 HORNBLENDE -0.2218
-4.6105 HOROSCOPE -0.2218
-4.6105 HORSEFLESH -0.2218
-4.6105 HORSEMANSHIP -0.2218
-4.6105 HORSERADISH -0.2218
-4.6105 HORTICULTURE -0.2218
-4.6105 HORTICULTURIST -0.2218
-4.6105 HOSPITAL -0.2218
-4.6105 HOSPITALITY -0.2218
-4.6105 HOSPITALIZATION -0.2218
-4.6105 HOSTILITIES -0.2218
-4.6105 HOSTILITY -0.2218
-4.6105 HOUSECLEANING -0.2218
-4.6105 HOUSEHOLDER -0.2218
-4.6105 HOUSEKEEPING -0.2218
-4.6105 HOUSEWARMING -0.2218
-4.6105 HOVERCRAFT -0.2218
-4.6105 HUCKLEBERRY -0.2218
-4.6105 HUGUENOT -0.2218
-4.6105 HULLABALOO -0.2218
-4.6105 HUMANISM -0.2218
-4.6105 HUMANIST -0.2218
-4.6105 HUMANITARIAN -0.2218
-4.6105 HUMANITIES -0.2218
-4.6105 HUMANITY -0.2218
-4.6105 HUMANKIND -0.2218
-4.6105 HUMANNESS -0.2218
-4.6105 HUMANOID -0.2218
-4.6105 HUMIDIFIER -0.2218
-4.6105 HUMIDITY -0.2218
-4.6105 HUMILIATION -0.2218
-4.6105 HUMILITY -0.2218
-4.6105 HUMMINGBIRD -0.2218
-4.6105 HUMORIST -0.2218
-4.6105 HUMULIN -0.2218
-4.6105 HUNDREDTH -0.2218
-4.6105 HUNDREDWEIGHT -0.2218
-4.6105 HUNGARIAN -0.2218
-4.6105 HUNTINGTON -0.2218
-4.6105 HUNTSMAN -0.2218
-4.6105 HUNTSVILLE -0.2218
-4.6105 HUSBANDRY -0.2218
-4.6105 HUTCHINSON -0.2218
-4.6105 HYBRIDIZATION -0.2218
-4.6105 HYDERABAD -0.2218
-4.6105 HYDRATION -0.2218
-4.6105 HYDRAULICS -0.2218
-4.6105 HYDRAZINE -0.2218
-4.6105 HYDROCARBON -0.2218
-4.6105 HYDROFOIL -0.2218
-4.6105 HYDROGEN -0.2218
-4.6105 HYDROGENATION -0.2218
-4.6105 HYDROLYSIS -0.2218
-4.6105 HYDROMETER -0.2218
-4.6105 HYDROTHERAPY -0.2218
-4.6105 HYDROXIDE -0.2218
-4.6105 HYGIENIST -0.2218
-4.6105 HYGROMETER -0.2218
-4.6105 HYPERACTIVITY -0.2218
-4.6105 HYPERBOLA -0.2218
-4.6105 HYPERBOLE -0.2218
-4.6105 HYPERBOREAN -0.2218
-4.6105 HYPERION -0.2218
-4.6105 HYPERLINK -0.2218
-4.6105 HYPERMARKET -0.2218
-4.6105 HYPEROPIA -0.2218
-4.6105 HYPERPLASIA -0.2218
-4.6105 HYPERSENSITIVITY -0.2218
-4.6105 HYPERTENSION -0.2218
-4.6105 HYPERTENSIVE -0.2218
-4.6105 HYPERTEXT -0.2218
-4.6105 HYPERTROPHY -0.2218
-4.6105 HYPHENATION -0.2218
-4.6105 HYPNOSIS -0.2218
-4.6105 HYPNOTIC -0.2218
-4.6105 HYPNOTISM -0.2218
-4.6105 HYPNOTIST -0.2218
-4.6105 HYPOCHONDRIA -0.2218
-4.6105 HYPOCHONDRIAC -0.2218
-4.6105 HYPOCRISY -0.2218
-4.6105 HYPOCRITE -0.2218
-4.6105 HYPODERMIC -0.2218
-4.6105 HYPOGLYCEMIA -0.2218
-4.6105 HYPOTENSION -0.2218
-4.6105 HYPOTHERMIA -0.2218
-4.6105 HYPOTHESIS -0.2218
-4.6105 HYPOTHETICAL -0.2218
-4.6105 HYPOXIA -0.2218
-4.6105 HYSTERECTOMY -0.2218
-4.6105 HYSTERIA -0.2218
-4.6105 HYSTERIC -0.2218
-4.6105 HYSTERICS -0.2218
-4.6105 IBUPROFEN -0.2218
-4.6105 ICELANDIC -0.2218
-4.6105 ICONOCLASM -0.2218
-4.6105 ICONOCLAST -0.2218
-4.6105 ICONOGRAPHY -0.2218
-4.6105 IDEALISM -0.2218
-4.6105 IDENTIFICATION -0.2218
-4.6105 IDENTIFIER -0.2218
-4.6105 IDENTIKIT -0.2218
-4.6105 IDENTITY -0.2218
-4.6105 IDEOLOGIST -0.2218
-4.6105 IDEOLOGY -0.2218
-4.6105 IDIOSYNCRASY -0.2218
-4.6105 IDITAROD -0.2218
-4.6105 IDOLATRY -0.2218
-4.6105 IGLESIAS -0.2218
-4.6105 IGNOMINY -0.2218
-4.6105 IGNORAMUS -0.2218
-4.6105 ILLEGALITY -0.2218
-4.6105 ILLEGITIMACY -0.2218
-4.6105 ILLEGITIMATE -0.2218
-4.6105 ILLITERACY -0.2218
-4.6105 ILLUMINATION -0.2218
-4.6105 ILLUSIONIST -0.2218
-4.6105 ILLUSTRATION -0.2218
-4.6105 ILLUSTRATOR -0.2218
-4.6105 IMAGINARY -0.2218
-4.6105 IMAGINATION -0.2218
-4.6105 IMBALANCE -0.2218
-4.6105 IMBROGLIO -0.2218
-4.6105 IMITATION -0.2218
-4.6105 IMMATURITY -0.2218
-4.6105 IMMEDIACY -0.2218
-4.6105 IMMIGRANT -0.2218
-4.6105 IMMIGRATION -0.2218
-4.6105 IMMOBILITY -0.2218
-4.6105 IMMOBILIZING -0.2218
-4.6105 IMMOLATION -0.2218
-4.6105 IMMORALITY -0.2218
-4.6105 IMMORTALITY -0.2218
-4.6105 IMMOVABLE -0.2218
-4.6105 IMMUNITY -0.2218
-4.6105 IMMUNIZATION -0.2218
-4.6105 IMMUNODEFICIENCY -0.2218
-4.6105 IMMUNOLOGIST -0.2218
-4.6105 IMMUNOLOGY -0.2218
-4.6105 IMMUNOTHERAPY -0.2218
-4.6105 IMPAIRMENT -0.2218
-4.6105 IMPARTIALITY -0.2218
-4.6105 IMPARTING -0.2218
-4.6105 IMPATIENCE -0.2218
-4.6105 IMPEACHMENT -0.2218
-4.6105 IMPEDANCE -0.2218
-4.6105 IMPEDIMENT -0.2218
-4.6105 IMPERATIVE -0.2218
-4.6105 IMPERFECT -0.2218
-4.6105 IMPERFECTION -0.2218
-4.6105 IMPERIAL -0.2218
-4.6105 IMPERIALISM -0.2218
-4.6105 IMPERIALIST -0.2218
-4.6105 IMPERSONATION -0.2218
-4.6105 IMPERSONATOR -0.2218
-4.6105 IMPINGING -0.2218
-4.6105 IMPLANTATION -0.2218
-4.6105 IMPLEMENT -0.2218
-4.6105 IMPLEMENTATION -0.2218
-4.6105 IMPLICATION -0.2218
-4.6105 IMPLOSION -0.2218
-4.6105 IMPONDERABLE -0.2218
-4.6105 IMPORTANCE -0.2218
-4.6105 IMPORTATION -0.2218
-4.6105 IMPORTING -0.2218
-4.6105 IMPOSITION -0.2218
-4.6105 IMPOSSIBILITY -0.2218
-4.6105 IMPOSSIBLE -0.2218
-4.6105 IMPOTENCE -0.2218
-4.6105 IMPOUNDING -0.2218
-4.6105 IMPOUNDMENT -0.2218
-4.6105 IMPOVERISHMENT -0.2218
-4.6105 IMPREGNATION -0.2218
-4.6105 IMPRESARIO -0.2218
-4.6105 IMPRESSION -0.2218
-4.6105 IMPRESSIONISM -0.2218
-4.6105 IMPRESSIONIST -0.2218
-4.6105 IMPRESSMENT -0.2218
-4.6105 IMPRIMATUR -0.2218
-4.6105 IMPRINTING -0.2218
-4.6105 IMPRISONMENT -0.2218
-4.6105 IMPROMPTU -0.2218
-4.6105 IMPROPRIETY -0.2218
-4.6105 IMPROVEMENT -0.2218
-4.6105 IMPROVISATION -0.2218
-4.6105 IMPRUDENCE -0.2218
-4.6105 IMPUNITY -0.2218
-4.6105 IMPURITY -0.2218
-4.6105 IMPUTATION -0.2218
-4.6105 INABILITY -0.2218
-4.6105 INACCESSIBILITY -0.2218
-4.6105 INACCURACY -0.2218
-4.6105 INACTIVATION -0.2218
-4.6105 INACTIVITY -0.2218
-4.6105 INADEQUACY -0.2218
-4.6105 INADVERTENCE -0.2218
-4.6105 INATTENTION -0.2218
-4.6105 INAUGURATION -0.2218
-4.6105 INBREEDING -0.2218
-4.6105 INCANTATION -0.2218
-4.6105 INCAPACITY -0.2218
-4.6105 INCARCERATION -0.2218
-4.6105 INCARNATION -0.2218
-4.6105 INCENDIARY -0.2218
-4.6105 INCENTIVE -0.2218
-4.6105 INCEPTION -0.2218
-4.6105 INCIDENCE -0.2218
-4.6105 INCIDENT -0.2218
-4.6105 INCIDENTAL -0.2218
-4.6105 INCINERATION -0.2218
-4.6105 INCINERATOR -0.2218
-4.6105 INCITEMENT -0.2218
-4.6105 INCIVILITY -0.2218
-4.6105 INCLINATION -0.2218
-4.6105 INCLUSION -0.2218
-4.6105 INCOHERENCE -0.2218
-4.6105 INCOMPATIBILITY -0.2218
-4.6105 INCOMPETENCE -0.2218
-4.6105 INCOMPETENCY -0.2218
-4.6105 INCOMPETENT -0.2218
-4.6105 INCONGRUITY -0.2218
-4.6105 INCONSISTENCY -0.2218
-4.6105 INCONSTANCY -0.2218
-4.6105 INCONTINENCE -0.2218
-4.6105 INCONVENIENCE -0.2218
-4.6105 INCOORDINATION -0.2218
-4.6105 INCORPORATION -0.2218
-4.6105 INCREDULITY -0.2218
-4.6105 INCREMENT -0.2218
-4.6105 INCRIMINATION -0.2218
-4.6105 INCRUSTATION -0.2218
-4.6105 INCUBATION -0.2218
-4.6105 INCUBATOR -0.2218
-4.6105 INCUMBENCY -0.2218
-4.6105 INCUMBENT -0.2218
-4.6105 INCURABLE -0.2218
-4.6105 INDEBTEDNESS -0.2218
-4.6105 INDECENCY -0.2218
-4.6105 INDECISION -0.2218
-4.6105 INDECISIVENESS -0.2218
-4.6105 INDEMNIFICATION -0.2218
-4.6105 INDEMNITY -0.2218
-4.6105 INDENTATION -0.2218
-4.6105 INDEPENDENCE -0.2218
-4.6105 INDEPENDENT -0.2218
-4.6105 INDESTRUCTIBILITY -0.2218
-4.6105 INDEXATION -0.2218
-4.6105 INDEXING -0.2218
-4.6105 INDIANAPOLIS -0.2218
-4.6105 INDICATION -0.2218
-4.6105 INDICATIVE -0.2218
-4.6105 INDICATOR -0.2218
-4.6105 INDICTMENT -0.2218
-4.6105 INDIFFERENCE -0.2218
-4.6105 INDIGESTION -0.2218
-4.6105 INDIGNATION -0.2218
-4.6105 INDIGNITY -0.2218
-4.6105 INDISCRETION -0.2218
-4.6105 INDIVIDUAL -0.2218
-4.6105 INDIVIDUALISM -0.2218
-4.6105 INDIVIDUALIST -0.2218
-4.6105 INDIVIDUALITY -0.2218
-4.6105 INDO-EUROPEAN -0.2218
-4.6105 INDOCHINA -0.2218
-4.6105 INDOCTRINATION -0.2218
-4.6105 INDONESIA -0.2218
-4.6105 INDONESIAN -0.2218
-4.6105 INDUCEMENT -0.2218
-4.6105 INDUCTANCE -0.2218
-4.6105 INDUCTION -0.2218
-4.6105 INDULGENCE -0.2218
-4.6105 INDULGING -0.2218
-4.6105 INDUSTRIALIST -0.2218
-4.6105 INDUSTRIALIZATION -0.2218
-4.6105 INDUSTRY -0.2218
-4.6105 INEBRIATE -0.2218
-4.6105 INEFFECTIVENESS -0.2218
-4.6105 INEFFICIENCY -0.2218
-4.6105 INEPTITUDE -0.2218
-4.6105 INEPTNESS -0.2218
-4.6105 INEQUALITY -0.2218
-4.6105 INEQUITY -0.2218
-4.6105 INEVITABILITY -0.2218
-4.6105 INEVITABLE -0.2218
-4.6105 INEXPERIENCE -0.2218
-4.6105 INFALLIBILITY -0.2218
-4.6105 INFANTICIDE -0.2218
-4.6105 INFANTRY -0.2218
-4.6105 INFANTRYMAN -0.2218
-4.6105 INFARCTION -0.2218
-4.6105 INFATUATION -0.2218
-4.6105 INFECTION -0.2218
-4.6105 INFERIORITY -0.2218
-4.6105 INFERTILITY -0.2218
-4.6105 INFESTATION -0.2218
-4.6105 INFIDELITY -0.2218
-4.6105 INFILTRATION -0.2218
-4.6105 INFILTRATOR -0.2218
-4.6105 INFINITESIMAL -0.2218
-4.6105 INFINITIVE -0.2218
-4.6105 INFINITY -0.2218
-4.6105 INFIRMITY -0.2218
-4.6105 INFLAMING -0.2218
-4.6105 INFLAMMATION -0.2218
-4.6105 INFLATION -0.2218
-4.6105 INFLECTION -0.2218
-4.6105 INFLEXIBILITY -0.2218
-4.6105 INFLICTION -0.2218
-4.6105 INFLUENCE -0.2218
-4.6105 INFLUENZA -0.2218
-4.6105 INFOMERCIAL -0.2218
-4.6105 INFORMALITY -0.2218
-4.6105 INFORMANT -0.2218
-4.6105 INFORMATICS -0.2218
-4.6105 INFORMATION -0.2218
-4.6105 INFORMING -0.2218
-4.6105 INFOTAINMENT -0.2218
-4.6105 INFRACTION -0.2218
-4.6105 INFRASTRUCTURE -0.2218
-4.6105 INFREQUENCY -0.2218
-4.6105 INFRINGEMENT -0.2218
-4.6105 INFUSION -0.2218
-4.6105 INGENUITY -0.2218
-4.6105 INGESTION -0.2218
-4.6105 INGLENOOK -0.2218
-4.6105 INGREDIENT -0.2218
-4.6105 INHABITANT -0.2218
-4.6105 INHABITATION -0.2218
-4.6105 INHALANT -0.2218
-4.6105 INHALATION -0.2218
-4.6105 INHERITANCE -0.2218
-4.6105 INHERITOR -0.2218
-4.6105 INHIBITION -0.2218
-4.6105 INHIBITOR -0.2218
-4.6105 INHUMANITY -0.2218
-4.6105 INIQUITY -0.2218
-4.6105 INITIATION -0.2218
-4.6105 INITIATIVE -0.2218
-4.6105 INITIATOR -0.2218
-4.6105 INJECTION -0.2218
-4.6105 INJUNCTION -0.2218
-4.6105 INJUSTICE -0.2218
-4.6105 INNOVATION -0.2218
-4.6105 INNUENDO -0.2218
-4.6105 INOCULATION -0.2218
-4.6105 INPATIENT -0.2218
-4.6105 INQUIRING -0.2218
-4.6105 INQUISITION -0.2218
-4.6105 INQUISITOR -0.2218
-4.6105 INSANITY -0.2218
-4.6105 INSCRIPTION -0.2218
-4.6105 INSECTICIDE -0.2218
-4.6105 INSECURITY -0.2218
-4.6105 INSEMINATION -0.2218
-4.6105 INSENSITIVITY -0.2218
-4.6105 INSIGNIA -0.2218
-4.6105 INSIGNIFICANCE -0.2218
-4.6105 INSINUATION -0.2218
-4.6105 INSISTENCE -0.2218
-4.6105 INSISTING -0.2218
-4.6105 INSOLENCE -0.2218
-4.6105 INSOLVENCY -0.2218
-4.6105 INSOLVENT -0.2218
-4.6105 INSOMNIA -0.2218
-4.6105 INSOMNIAC -0.2218
-4.6105 INSOUCIANCE -0.2218
-4.6105 INSPECTION -0.2218
-4.6105 INSPECTOR -0.2218
-4.6105 INSPECTORATE -0.2218
-4.6105 INSPIRATION -0.2218
-4.6105 INSTABILITY -0.2218
-4.6105 INSTALLATION -0.2218
-4.6105 INSTALLING -0.2218
-4.6105 INSTALLMENT -0.2218
-4.6105 INSTANTIATION -0.2218
-4.6105 INSTIGATION -0.2218
-4.6105 INSTIGATOR -0.2218
-4.6105 INSTILLING -0.2218
-4.6105 INSTINCT -0.2218
-4.6105 INSTITUTE -0.2218
-4.6105 INSTITUTION -0.2218
-4.6105 INSTRUCTION -0.2218
-4.6105 INSTRUCTIONS -0.2218
-4.6105 INSTRUCTOR -0.2218
-4.6105 INSTRUMENT -0.2218
-4.6105 INSTRUMENTALIST -0.2218
-4.6105 INSTRUMENTALITY -0.2218
-4.6105 INSTRUMENTATION -0.2218
-4.6105 INSUBORDINATION -0.2218
-4.6105 INSULARITY -0.2218
-4.6105 INSULATION -0.2218
-4.6105 INSULATOR -0.2218
-4.6105 INSURANCE -0.2218
-4.6105 INSURGENCY -0.2218
-4.6105 INSURGENT -0.2218
-4.6105 INSURRECTION -0.2218
-4.6105 INTANGIBLE -0.2218
-4.6105 INTEGRAL -0.2218
-4.6105 INTEGRATING -0.2218
-4.6105 INTEGRATION -0.2218
-4.6105 INTEGRATOR -0.2218
-4.6105 INTEGRITY -0.2218
-4.6105 INTEGUMENT -0.2218
-4.6105 INTELLECT -0.2218
-4.6105 INTELLECTUAL -0.2218
-4.6105 INTELLIGENCE -0.2218
-4.6105 INTELLIGENTSIA -0.2218
-4.6105 INTENSIFICATION -0.2218
-4.6105 INTENSITY -0.2218
-4.6105 INTENSIVE -0.2218
-4.6105 INTENTION -0.2218
-4.6105 INTERACTION -0.2218
-4.6105 INTERCEPT -0.2218
-4.6105 INTERCEPTION -0.2218
-4.6105 INTERCEPTOR -0.2218
-4.6105 INTERCESSION -0.2218
-4.6105 INTERCHANGE -0.2218
-4.6105 INTERCONNECTION -0.2218
-4.6105 INTERCOURSE -0.2218
-4.6105 INTERDEPENDENCE -0.2218
-4.6105 INTERDICT -0.2218
-4.6105 INTERDICTION -0.2218
-4.6105 INTERFERENCE -0.2218
-4.6105 INTERFEROMETER -0.2218
-4.6105 INTERFERON -0.2218
-4.6105 INTERJECTION -0.2218
-4.6105 INTERLEUKIN -0.2218
-4.6105 INTERLOCKING -0.2218
-4.6105 INTERLOCUTOR -0.2218
-4.6105 INTERLOPER -0.2218
-4.6105 INTERMARRIAGE -0.2218
-4.6105 INTERMEDIARY -0.2218
-4.6105 INTERMEDIATE -0.2218
-4.6105 INTERMISSION -0.2218
-4.6105 INTERNATIONAL -0.2218
-4.6105 INTERNATIONALE -0.2218
-4.6105 INTERNATIONALISM -0.2218
-4.6105 INTERNATIONALIST -0.2218
-4.6105 INTERNATIONALIZATION -0.2218
-4.6105 INTERNIST -0.2218
-4.6105 INTERNMENT -0.2218
-4.6105 INTERNSHIP -0.2218
-4.6105 INTERPRETATION -0.2218
-4.6105 INTERPRETER -0.2218
-4.6105 INTERPRETING -0.2218
-4.6105 INTERREGNUM -0.2218
-4.6105 INTERRELATIONSHIP -0.2218
-4.6105 INTERROGATION -0.2218
-4.6105 INTERROGATOR -0.2218
-4.6105 INTERROGATORY -0.2218
-4.6105 INTERRUPTION -0.2218
-4.6105 INTERSECTION -0.2218
-4.6105 INTERSTATE -0.2218
-4.6105 INTERVENOR -0.2218
-4.6105 INTERVENTION -0.2218
-4.6105 INTERVIEWEE -0.2218
-4.6105 INTERVIEWER -0.2218
-4.6105 INTESTINE -0.2218
-4.6105 INTIFADA -0.2218
-4.6105 INTIMACY -0.2218
-4.6105 INTIMATION -0.2218
-4.6105 INTIMIDATION -0.2218
-4.6105 INTOLERANCE -0.2218
-4.6105 INTONATION -0.2218
-4.6105 INTOXICATION -0.2218
-4.6105 INTRANSIGENCE -0.2218
-4.6105 INTRICACY -0.2218
-4.6105 INTRODUCTION -0.2218
-4.6105 INTROSPECTION -0.2218
-4.6105 INTROVERT -0.2218
-4.6105 INTRUSION -0.2218
-4.6105 INTRUSIVENESS -0.2218
-4.6105 INTUITION -0.2218
-4.6105 INUNDATION -0.2218
-4.6105 INVALIDATION -0.2218
-4.6105 INVARIABLE -0.2218
-4.6105 INVARIANCE -0.2218
-4.6105 INVARIANT -0.2218
-4.6105 INVECTIVE -0.2218
-4.6105 INVENTION -0.2218
-4.6105 INVENTIVENESS -0.2218
-4.6105 INVENTORY -0.2218
-4.6105 INVERTEBRATE -0.2218
-4.6105 INVESTIGATING -0.2218
-4.6105 INVESTIGATION -0.2218
-4.6105 INVESTIGATOR -0.2218
-4.6105 INVESTING -0.2218
-4.6105 INVESTITURE -0.2218
-4.6105 INVESTMENT -0.2218
-4.6105 INVINCIBILITY -0.2218
-4.6105 INVISIBILITY -0.2218
-4.6105 INVITATION -0.2218
-4.6105 INVOCATION -0.2218
-4.6105 INVOLVEMENT -0.2218
-4.6105 INVULNERABILITY -0.2218
-4.6105 IONIZATION -0.2218
-4.6105 IONOSPHERE -0.2218
-4.6105 IRRADIATION -0.2218
-4.6105 IRRATIONAL -0.2218
-4.6105 IRRATIONALITY -0.2218
-4.6105 IRREDENTISM -0.2218
-4.6105 IRREGULAR -0.2218
-4.6105 IRREGULARITY -0.2218
-4.6105 IRRELEVANCE -0.2218
-4.6105 IRRELEVANCY -0.2218
-4.6105 IRRESPONSIBILITY -0.2218
-4.6105 IRREVERENCE -0.2218
-4.6105 IRRIGATION -0.2218
-4.6105 IRRITABILITY -0.2218
-4.6105 IRRITATION -0.2218
-4.6105 ISLAMABAD -0.2218
-4.6105 ISLAMIST -0.2218
-4.6105 ISOCYANATE -0.2218
-4.6105 ISOLATION -0.2218
-4.6105 ISOLATIONISM -0.2218
-4.6105 ISOLATIONIST -0.2218
-4.6105 ISOMORPHISM -0.2218
-4.6105 ISRAELITES -0.2218
-4.6105 ISTANBUL -0.2218
-4.6105 ITINERANT -0.2218
-4.6105 ITINERARY -0.2218
-4.6105 JACKRABBIT -0.2218
-4.6105 JACKSONIAN -0.2218
-4.6105 JACKSONVILLE -0.2218
-4.6105 JACOBEAN -0.2218
-4.6105 JALALABAD -0.2218
-4.6105 JALAPENO -0.2218
-4.6105 JANSENISM -0.2218
-4.6105 JANSENIST -0.2218
-4.6105 JANUARY -0.2218
-4.6105 JAPONICA -0.2218
-4.6105 JEFFERSONIAN -0.2218
-4.6105 JEREMIAD -0.2218
-4.6105 JEROBOAM -0.2218
-4.6105 JERUSALEM -0.2218
-4.6105 JESPERSEN -0.2218
-4.6105 JINGOISM -0.2218
-4.6105 JOHANNESBURG -0.2218
-4.6105 JONESBORO -0.2218
-4.6105 JORDANIAN -0.2218
-4.6105 JOURNALISM -0.2218
-4.6105 JOURNALIST -0.2218
-4.6105 JUBILATION -0.2218
-4.6105 JUDAISM -0.2218
-4.6105 JUDICIARY -0.2218
-4.6105 JUMPSTART -0.2218
-4.6105 JUNKYARD -0.2218
-4.6105 JURISDICTION -0.2218
-4.6105 JURISPRUDENCE -0.2218
-4.6105 JUSTIFICATION -0.2218
-4.6105 JUXTAPOSITION -0.2218
-4.6105 KALAMAZOO -0.2218
-4.6105 KALASHNIKOV -0.2218
-4.6105 KALEIDOSCOPE -0.2218
-4.6105 KAMIKAZE -0.2218
-4.6105 KANDAHAR -0.2218
-4.6105 KATMANDU -0.2218
-4.6105 KAZAKHSTAN -0.2218
-4.6105 KENTUCKIAN -0.2218
-4.6105 KERATOCONUS -0.2218
-4.6105 KERATOTOMY -0.2218
-4.6105 KHABAROVSK -0.2218
-4.6105 KIDNAPPING -0.2218
-4.6105 KILIMANJARO -0.2218
-4.6105 KILOGRAM -0.2218
-4.6105 KILOMETER -0.2218
-4.6105 KILOMETRE -0.2218
-4.6105 KINDERGARTEN -0.2218
-4.6105 KINDERGARTNER -0.2218
-4.6105 KINESIOLOGY -0.2218
-4.6105 KINETICS -0.2218
-4.6105 KIRIBATI -0.2218
-4.6105 KITCHENWARE -0.2218
-4.6105 KLANSMAN -0.2218
-4.6105 KLEPTOMANIAC -0.2218
-4.6105 KLINEFELTER -0.2218
-4.6105 KNICKERBOCKERS -0.2218
-4.6105 KUOMINTANG -0.2218
-4.6105 KURDISTAN -0.2218
-4.6105 KUROSAWA -0.2218
-4.6105 KYRGYZSTAN -0.2218
-4.6105 LABORATORY -0.2218
-4.6105 LABRADOR -0.2218
-4.6105 LACERATION -0.2218
-4.6105 LACTATION -0.2218
-4.6105 LACTOBACILLUS -0.2218
-4.6105 LAKEFRONT -0.2218
-4.6105 LAMPLIGHTER -0.2218
-4.6105 LAMPPOST -0.2218
-4.6105 LANCASHIRE -0.2218
-4.6105 LANCASTER -0.2218
